SVM-light Version V6.02
2 # kernel type
3 # kernel parameter -d 
40 # kernel parameter -g 
1 # kernel parameter -s 
1 # kernel parameter -r 
empty# kernel parameter -u 
64 # highest feature index 
492 # number of training documents 
235 # number of support vectors plus 1 
0.62598916 # threshold b, each following line is a SV (starting with alpha*y)
0.40324817559910164 1:0.061349694 2:0.049079753 3:0.0061349692 4:0.012269938 5:0.018404908 6:0.012269938 7:0.012269938 8:0.012269938 9:0.018404908 10:0.0061349692 11:0.012269938 12:0.024539877 13:0.030674847 14:0 15:0.018404908 16:0.012269938 17:0.049079753 18:0.0061349692 19:0.0061349692 20:0 21:0.012269938 22:0 23:0.0061349692 24:0.0061349692 25:0.0061349692 26:0.018404908 27:0.024539877 28:0.012269938 29:0.012269938 30:0.0061349692 31:0.012269938 32:0.0061349692 33:0.0061349692 34:0.018404908 35:0.012269938 36:0.030674847 37:0.012269938 38:0.0061349692 39:0.0061349692 40:0.012269938 41:0.012269938 42:0.018404908 43:0.024539877 44:0.024539877 45:0.012269938 46:0.012269938 47:0.030674847 48:0.030674847 49:0.012269938 50:0.0061349692 51:0.018404908 52:0.018404908 53:0.024539877 54:0.012269938 55:0.030674847 56:0 57:0.012269938 58:0.0061349692 59:0.012269938 60:0.030674847 61:0.012269938 62:0.0061349692 63:0.030674847 64:0.0061349692 #
-1.7795887373193664 1:0.014925373 2:0.029850746 3:0.0074626864 4:0.029850746 5:0.0074626864 6:0.014925373 7:0 8:0.029850746 9:0.0074626864 10:0.02238806 11:0.014925373 12:0.0074626864 13:0.052238807 14:0.014925373 15:0.02238806 16:0.029850746 17:0.02238806 18:0.014925373 19:0.0074626864 20:0.029850746 21:0.02238806 22:0.02238806 23:0.0074626864 24:0.0074626864 25:0.014925373 26:0.0074626864 27:0.02238806 28:0.0074626864 29:0.02238806 30:0.0074626864 31:0.0074626864 32:0.014925373 33:0.02238806 34:0.02238806 35:0.014925373 36:0.029850746 37:0 38:0.0074626864 39:0.02238806 40:0.0074626864 41:0.0074626864 42:0 43:0.044776119 44:0.0074626864 45:0.014925373 46:0 47:0.0074626864 48:0 49:0.02238806 50:0.0074626864 51:0.014925373 52:0.0074626864 53:0.052238807 54:0.0074626864 55:0 56:0.02238806 57:0.014925373 58:0.014925373 59:0.0074626864 60:0.0074626864 61:0.0074626864 62:0.037313432 63:0.0074626864 64:0.014925373 #
-3 1:0.025641026 2:0.014245015 3:0.019943019 4:0.011396011 5:0.014245015 6:0.0056980057 7:0.019943019 8:0.011396011 9:0.014245015 10:0.017094018 11:0.011396011 12:0.014245015 13:0.017094018 14:0.017094018 15:0.011396011 16:0.014245015 17:0.014245015 18:0.014245015 19:0.014245015 20:0.017094018 21:0.011396011 22:0.011396011 23:0.014245015 24:0.011396011 25:0.011396011 26:0.014245015 27:0.011396011 28:0.031339031 29:0.0056980057 30:0.011396011 31:0.014245015 32:0.011396011 33:0.017094018 34:0.011396011 35:0.017094018 36:0.019943019 37:0.017094018 38:0.014245015 39:0.0056980057 40:0.017094018 41:0.022792023 42:0.011396011 43:0.022792023 44:0.019943019 45:0.008547009 46:0.019943019 47:0.022792023 48:0.022792023 49:0.014245015 50:0.0028490028 51:0.014245015 52:0.011396011 53:0.011396011 54:0.019943019 55:0.017094018 56:0.017094018 57:0.017094018 58:0.011396011 59:0.022792023 60:0.019943019 61:0.019943019 62:0.022792023 63:0.031339031 64:0.017094018 #
5.3785395297134144 1:0.026785715 2:0.0059523811 3:0.017857144 4:0.011904762 5:0.011904762 6:0.017857144 7:0.0059523811 8:0.017857144 9:0.017857144 10:0.014880952 11:0.0089285718 12:0.017857144 13:0.023809524 14:0.017857144 15:0.017857144 16:0.014880952 17:0.014880952 18:0.020833334 19:0.020833334 20:0.020833334 21:0.017857144 22:0.023809524 23:0.011904762 24:0.011904762 25:0 26:0.014880952 27:0.011904762 28:0.020833334 29:0.017857144 30:0.011904762 31:0.017857144 32:0.0089285718 33:0.017857144 34:0.0059523811 35:0.011904762 36:0.023809524 37:0.011904762 38:0.017857144 39:0.020833334 40:0.014880952 41:0.0089285718 42:0.011904762 43:0.014880952 44:0.017857144 45:0.017857144 46:0.017857144 47:0.014880952 48:0.020833334 49:0.020833334 50:0.017857144 51:0.0059523811 52:0.0089285718 53:0.014880952 54:0.0089285718 55:0.014880952 56:0.017857144 57:0.023809524 58:0.020833334 59:0.026785715 60:0.017857144 61:0.0059523811 62:0.014880952 63:0.026785715 64:0.0059523811 #
-1.7185819518540668 1:0.013201321 2:0.0033003301 3:0.013201321 4:0.01650165 5:0.0099009899 6:0.013201321 7:0.036303632 8:0.01650165 9:0.02310231 10:0.0066006603 11:0.01650165 12:0.026402641 13:0.02310231 14:0.01650165 15:0.0099009899 16:0.0099009899 17:0.02310231 18:0.02310231 19:0.01980198 20:0.0099009899 21:0.013201321 22:0.01650165 23:0.0099009899 24:0.01980198 25:0.01650165 26:0.02310231 27:0.0099009899 28:0.01650165 29:0.02310231 30:0.0033003301 31:0.01650165 32:0.0066006603 33:0.02310231 34:0.0330033 35:0.0099009899 36:0.01650165 37:0.0033003301 38:0.0066006603 39:0.013201321 40:0.013201321 41:0.01980198 42:0.013201321 43:0.026402641 44:0.013201321 45:0.013201321 46:0.02310231 47:0.026402641 48:0.01650165 49:0.0099009899 50:0.01650165 51:0.01650165 52:0.0099009899 53:0.013201321 54:0.029702971 55:0.013201321 56:0.01980198 57:0.01980198 58:0.013201321 59:0.02310231 60:0.0033003301 61:0.0099009899 62:0.0099009899 63:0.0066006603 64:0.0099009899 #
0.096136361254379174 1:0.042016808 2:0 3:0.0084033618 4:0.042016808 5:0 6:0.016806724 7:0.0084033618 8:0 9:0.0084033618 10:0 11:0.016806724 12:0.016806724 13:0.033613447 14:0.016806724 15:0.016806724 16:0.075630255 17:0.0084033618 18:0.016806724 19:0.025210084 20:0.016806724 21:0 22:0.050420169 23:0 24:0 25:0 26:0 27:0 28:0 29:0.025210084 30:0.0084033618 31:0.016806724 32:0 33:0.033613447 34:0.016806724 35:0.0084033618 36:0.025210084 37:0 38:0 39:0.016806724 40:0.016806724 41:0 42:0.016806724 43:0.016806724 44:0.025210084 45:0.0084033618 46:0 47:0.016806724 48:0.0084033618 49:0 50:0 51:0 52:0.05882353 53:0.033613447 54:0.0084033618 55:0.0084033618 56:0.0084033618 57:0.042016808 58:0.016806724 59:0.025210084 60:0.016806724 61:0.067226894 62:0 63:0.025210084 64:0.0084033618 #
-0.16291876038587078 1:0.021052632 2:0.010526316 3:0 4:0.031578947 5:0.010526316 6:0 7:0 8:0 9:0.010526316 10:0.021052632 11:0.042105265 12:0.021052632 13:0.021052632 14:0.042105265 15:0.010526316 16:0 17:0.021052632 18:0.021052632 19:0 20:0 21:0.010526316 22:0.010526316 23:0.031578947 24:0.042105265 25:0.021052632 26:0.021052632 27:0.010526316 28:0.021052632 29:0.021052632 30:0.010526316 31:0.021052632 32:0.010526316 33:0 34:0.021052632 35:0.021052632 36:0.010526316 37:0.021052632 38:0.031578947 39:0.042105265 40:0.010526316 41:0.010526316 42:0.010526316 43:0.021052632 44:0.010526316 45:0.010526316 46:0.021052632 47:0.010526316 48:0.021052632 49:0.010526316 50:0.021052632 51:0.021052632 52:0.021052632 53:0.031578947 54:0.021052632 55:0.010526316 56:0 57:0.010526316 58:0.010526316 59:0.021052632 60:0.010526316 61:0.010526316 62:0 63:0.010526316 64:0 #
-3 1:0.01904762 2:0.0047619049 3:0.014285714 4:0.0095238099 5:0.014285714 6:0.023809524 7:0.0095238099 8:0.014285714 9:0.0047619049 10:0.01904762 11:0.023809524 12:0.014285714 13:0.023809524 14:0.0095238099 15:0.0095238099 16:0 17:0.0047619049 18:0.014285714 19:0.0095238099 20:0.014285714 21:0.023809524 22:0.028571429 23:0.0095238099 24:0.01904762 25:0.0095238099 26:0.01904762 27:0.023809524 28:0.023809524 29:0.0047619049 30:0.023809524 31:0.028571429 32:0.0095238099 33:0.028571429 34:0.0095238099 35:0.01904762 36:0.023809524 37:0.0095238099 38:0.028571429 39:0.014285714 40:0.023809524 41:0.01904762 42:0.0095238099 43:0.023809524 44:0.014285714 45:0.0047619049 46:0.0095238099 47:0.028571429 48:0.023809524 49:0.0095238099 50:0.014285714 51:0.01904762 52:0 53:0.014285714 54:0.0047619049 55:0.023809524 56:0.0095238099 57:0.023809524 58:0.023809524 59:0.014285714 60:0.023809524 61:0 62:0.023809524 63:0.01904762 64:0.0047619049 #
1.2364946023149386 1:0.023076924 2:0.015384615 3:0.015384615 4:0.015384615 5:0.03846154 6:0.023076924 7:0.0076923077 8:0 9:0.023076924 10:0.015384615 11:0.015384615 12:0 13:0.0076923077 14:0.030769231 15:0.0076923077 16:0.015384615 17:0.023076924 18:0.0076923077 19:0.015384615 20:0.023076924 21:0.015384615 22:0.07692308 23:0.015384615 24:0.023076924 25:0.0076923077 26:0.046153847 27:0.015384615 28:0.015384615 29:0 30:0.023076924 31:0.03846154 32:0.0076923077 33:0.030769231 34:0.0076923077 35:0.0076923077 36:0.0076923077 37:0.0076923077 38:0.030769231 39:0.015384615 40:0.023076924 41:0 42:0.0076923077 43:0 44:0.015384615 45:0.0076923077 46:0.015384615 47:0.0076923077 48:0.0076923077 49:0.015384615 50:0.015384615 51:0.0076923077 52:0.015384615 53:0.015384615 54:0.023076924 55:0.030769231 56:0.0076923077 57:0.015384615 58:0.015384615 59:0 60:0.0076923077 61:0.015384615 62:0 63:0 64:0.015384615 #
1.7933247810233996 1:0.011494253 2:0 3:0 4:0.017241379 5:0.011494253 6:0.0057471264 7:0.0057471264 8:0 9:0 10:0.011494253 11:0.011494253 12:0.011494253 13:0.0057471264 14:0.022988506 15:0.022988506 16:0.022988506 17:0 18:0.028735632 19:0 20:0.028735632 21:0.011494253 22:0.022988506 23:0.017241379 24:0.022988506 25:0.0057471264 26:0.017241379 27:0.034482758 28:0.011494253 29:0.017241379 30:0.022988506 31:0.011494253 32:0.028735632 33:0 34:0 35:0.0057471264 36:0.022988506 37:0.011494253 38:0.028735632 39:0.028735632 40:0.011494253 41:0 42:0.011494253 43:0.045977011 44:0.022988506 45:0.0057471264 46:0.034482758 47:0.022988506 48:0.0057471264 49:0.017241379 50:0.0057471264 51:0.011494253 52:0.011494253 53:0.0057471264 54:0.034482758 55:0.022988506 56:0.034482758 57:0.034482758 58:0.017241379 59:0.017241379 60:0.011494253 61:0.022988506 62:0.011494253 63:0.0057471264 64:0.034482758 #
-3 1:0.021052632 2:0 3:0 4:0 5:0.010526316 6:0.021052632 7:0.010526316 8:0 9:0.010526316 10:0.010526316 11:0.010526316 12:0.010526316 13:0.031578947 14:0.021052632 15:0.042105265 16:0.031578947 17:0.031578947 18:0.052631579 19:0.021052632 20:0.010526316 21:0.010526316 22:0.073684208 23:0.031578947 24:0.021052632 25:0.031578947 26:0.021052632 27:0 28:0 29:0.010526316 30:0.010526316 31:0.021052632 32:0 33:0.010526316 34:0.031578947 35:0.010526316 36:0.021052632 37:0.010526316 38:0.010526316 39:0.010526316 40:0.021052632 41:0.010526316 42:0.021052632 43:0 44:0.042105265 45:0 46:0 47:0 48:0.010526316 49:0.010526316 50:0 51:0 52:0.010526316 53:0.021052632 54:0.052631579 55:0.010526316 56:0.031578947 57:0.010526316 58:0.021052632 59:0.010526316 60:0 61:0 62:0 63:0.031578947 64:0 #
-3 1:0.05952381 2:0.023809524 3:0.011904762 4:0.011904762 5:0.023809524 6:0.035714287 7:0 8:0.047619049 9:0 10:0 11:0.023809524 12:0.011904762 13:0.05952381 14:0.011904762 15:0 16:0.035714287 17:0.047619049 18:0.05952381 19:0.023809524 20:0 21:0.035714287 22:0.047619049 23:0.011904762 24:0.023809524 25:0.023809524 26:0.011904762 27:0 28:0 29:0.035714287 30:0.011904762 31:0.011904762 32:0 33:0.011904762 34:0.023809524 35:0 36:0 37:0.011904762 38:0.011904762 39:0.011904762 40:0.011904762 41:0.011904762 42:0 43:0 44:0 45:0 46:0 47:0.011904762 48:0.011904762 49:0.023809524 50:0.023809524 51:0 52:0.023809524 53:0 54:0.035714287 55:0.011904762 56:0.011904762 57:0 58:0.035714287 59:0 60:0 61:0.011904762 62:0 63:0 64:0 #
-3 1:0.028301887 2:0.018867925 3:0 4:0 5:0.018867925 6:0.028301887 7:0.0094339624 8:0 9:0.018867925 10:0.03773585 11:0.018867925 12:0 13:0 14:0.028301887 15:0.0094339624 16:0.0094339624 17:0.018867925 18:0.028301887 19:0.03773585 20:0 21:0.03773585 22:0.03773585 23:0.0094339624 24:0.018867925 25:0 26:0.03773585 27:0.03773585 28:0.018867925 29:0 30:0.0094339624 31:0.0094339624 32:0.018867925 33:0.018867925 34:0.018867925 35:0.028301887 36:0.028301887 37:0.03773585 38:0.0094339624 39:0.0094339624 40:0.018867925 41:0.018867925 42:0 43:0.0094339624 44:0.028301887 45:0 46:0.018867925 47:0.028301887 48:0 49:0 50:0 51:0.0094339624 52:0 53:0.018867925 54:0.03773585 55:0.018867925 56:0.018867925 57:0 58:0.018867925 59:0.0094339624 60:0.0094339624 61:0.0094339624 62:0 63:0.028301887 64:0 #
9 1:0 2:0.0074626864 3:0 4:0 5:0 6:0.0074626864 7:0.02238806 8:0.014925373 9:0.0074626864 10:0 11:0.0074626864 12:0 13:0.014925373 14:0.0074626864 15:0.0074626864 16:0.0074626864 17:0 18:0.0074626864 19:0.014925373 20:0.0074626864 21:0 22:0.0074626864 23:0.014925373 24:0.02238806 25:0.0074626864 26:0.02238806 27:0.029850746 28:0.059701491 29:0 30:0.014925373 31:0.014925373 32:0.02238806 33:0.0074626864 34:0 35:0.014925373 36:0.014925373 37:0.014925373 38:0.02238806 39:0.029850746 40:0.029850746 41:0.0074626864 42:0.014925373 43:0.067164183 44:0.02238806 45:0.0074626864 46:0.044776119 47:0.02238806 48:0.014925373 49:0.014925373 50:0 51:0.0074626864 52:0.014925373 53:0.0074626864 54:0.014925373 55:0.014925373 56:0.02238806 57:0.014925373 58:0.029850746 59:0.029850746 60:0.0074626864 61:0 62:0.044776119 63:0.037313432 64:0.052238807 #
9 1:0.0075471699 2:0.011320755 3:0.020754717 4:0.011320755 5:0.01509434 6:0.0075471699 7:0.0094339624 8:0.01509434 9:0.024528302 10:0.018867925 11:0.02264151 12:0.02264151 13:0.02264151 14:0.0056603774 15:0.026415095 16:0.01509434 17:0.024528302 18:0.0075471699 19:0.020754717 20:0.0056603774 21:0.003773585 22:0.0018867925 23:0.013207547 24:0.0056603774 25:0.003773585 26:0.016981132 27:0.024528302 28:0.011320755 29:0.011320755 30:0.0075471699 31:0.020754717 32:0.0075471699 33:0.02264151 34:0.013207547 35:0.028301887 36:0.03018868 37:0.016981132 38:0.011320755 39:0.02264151 40:0.018867925 41:0.020754717 42:0.020754717 43:0.033962265 44:0.01509434 45:0.016981132 46:0.0094339624 47:0.02264151 48:0.02264151 49:0.01509434 50:0.011320755 51:0.0075471699 52:0.016981132 53:0.0075471699 54:0.013207547 55:0.0094339624 56:0.01509434 57:0.028301887 58:0.02264151 59:0.026415095 60:0.013207547 61:0.013207547 62:0.0075471699 63:0.016981132 64:0.0056603774 #
-2.0353879227745217 1:0.041666668 2:0.027777778 3:0 4:0.027777778 5:0 6:0.013888889 7:0.013888889 8:0.013888889 9:0 10:0 11:0.027777778 12:0 13:0.013888889 14:0.013888889 15:0.041666668 16:0.027777778 17:0 18:0 19:0.013888889 20:0.041666668 21:0.027777778 22:0 23:0.013888889 24:0 25:0.027777778 26:0.027777778 27:0.013888889 28:0 29:0.013888889 30:0.013888889 31:0.013888889 32:0 33:0.013888889 34:0.013888889 35:0.027777778 36:0 37:0.013888889 38:0.027777778 39:0.013888889 40:0.055555556 41:0.013888889 42:0 43:0.055555556 44:0.027777778 45:0 46:0 47:0.013888889 48:0.013888889 49:0 50:0.027777778 51:0 52:0.027777778 53:0.013888889 54:0 55:0 56:0 57:0.041666668 58:0.013888889 59:0.013888889 60:0.013888889 61:0.041666668 62:0.013888889 63:0.027777778 64:0 #
-3 1:0.0234375 2:0 3:0.0546875 4:0.03125 5:0.0078125 6:0.015625 7:0.0078125 8:0 9:0.0234375 10:0.0078125 11:0.0078125 12:0.0234375 13:0.0390625 14:0.015625 15:0.0234375 16:0.03125 17:0.0078125 18:0 19:0.0078125 20:0.03125 21:0 22:0 23:0.0078125 24:0.0078125 25:0.015625 26:0.0078125 27:0 28:0 29:0 30:0.0234375 31:0.0234375 32:0.0078125 33:0.0234375 34:0.015625 35:0 36:0.0234375 37:0.0078125 38:0.0078125 39:0.0078125 40:0.0078125 41:0.015625 42:0.0078125 43:0.03125 44:0.0078125 45:0.03125 46:0 47:0.0234375 48:0.03125 49:0.03125 50:0.0078125 51:0.0234375 52:0.0234375 53:0.0234375 54:0.0078125 55:0.0078125 56:0.0234375 57:0.0390625 58:0.015625 59:0.0234375 60:0.0234375 61:0.015625 62:0.0078125 63:0 64:0.03125 #
-1.4472377177329241 1:0.033613447 2:0 3:0.033613447 4:0.0084033618 5:0.0084033618 6:0.025210084 7:0.025210084 8:0 9:0.0084033618 10:0.016806724 11:0.0084033618 12:0.016806724 13:0.0084033618 14:0 15:0.0084033618 16:0.0084033618 17:0.0084033618 18:0.033613447 19:0 20:0.0084033618 21:0.016806724 22:0 23:0.025210084 24:0.016806724 25:0.025210084 26:0 27:0.033613447 28:0.016806724 29:0 30:0.0084033618 31:0.025210084 32:0.016806724 33:0 34:0.016806724 35:0.0084033618 36:0.016806724 37:0 38:0.0084033618 39:0.025210084 40:0.016806724 41:0.025210084 42:0.025210084 43:0 44:0.0084033618 45:0.033613447 46:0.033613447 47:0.016806724 48:0.025210084 49:0.016806724 50:0 51:0.016806724 52:0.016806724 53:0.016806724 54:0.0084033618 55:0.0084033618 56:0.033613447 57:0.016806724 58:0.042016808 59:0.0084033618 60:0.0084033618 61:0 62:0.016806724 63:0.016806724 64:0.067226894 #
2.1268030373386866 1:0 2:0.012048192 3:0 4:0 5:0.012048192 6:0.036144577 7:0.024096385 8:0.012048192 9:0 10:0 11:0 12:0.024096385 13:0.024096385 14:0 15:0.024096385 16:0 17:0.036144577 18:0.012048192 19:0 20:0.012048192 21:0.012048192 22:0.084337346 23:0.048192769 24:0.024096385 25:0.024096385 26:0.048192769 27:0.012048192 28:0 29:0.012048192 30:0 31:0.024096385 32:0.024096385 33:0 34:0.060240965 35:0.012048192 36:0.012048192 37:0.012048192 38:0 39:0.024096385 40:0.012048192 41:0 42:0.024096385 43:0 44:0.036144577 45:0 46:0.036144577 47:0.012048192 48:0.012048192 49:0 50:0.012048192 51:0 52:0 53:0.012048192 54:0.024096385 55:0.024096385 56:0.024096385 57:0.012048192 58:0.012048192 59:0.036144577 60:0.012048192 61:0 62:0.024096385 63:0.012048192 64:0 #
1.3710296001419271 1:0.014705882 2:0.044117648 3:0 4:0 5:0.044117648 6:0.088235296 7:0 8:0 9:0 10:0.029411765 11:0.014705882 12:0 13:0 14:0.014705882 15:0 16:0 17:0.029411765 18:0.073529415 19:0.014705882 20:0 21:0.11764706 22:0.044117648 23:0.029411765 24:0.029411765 25:0 26:0.014705882 27:0 28:0 29:0 30:0.044117648 31:0.014705882 32:0.044117648 33:0.014705882 34:0.014705882 35:0.029411765 36:0 37:0.014705882 38:0.014705882 39:0 40:0.014705882 41:0.014705882 42:0.014705882 43:0 44:0 45:0 46:0 47:0.014705882 48:0.014705882 49:0 50:0.014705882 51:0 52:0 53:0 54:0.029411765 55:0 56:0.014705882 57:0 58:0 59:0.029411765 60:0.029411765 61:0 62:0.014705882 63:0 64:0 #
-3 1:0.019002376 2:0.002375297 3:0.011876484 4:0.019002376 5:0.0071258908 6:0.0095011881 7:0.011876484 8:0.016627079 9:0.021377672 10:0.011876484 11:0.011876484 12:0.021377672 13:0.011876484 14:0.011876484 15:0.023752969 16:0.011876484 17:0.0095011881 18:0.0095011881 19:0.014251782 20:0.014251782 21:0.004750594 22:0.011876484 23:0.014251782 24:0.021377672 25:0.0071258908 26:0.014251782 27:0.021377672 28:0.016627079 29:0.0095011881 30:0.0071258908 31:0.014251782 32:0.014251782 33:0.016627079 34:0.004750594 35:0.014251782 36:0.016627079 37:0.011876484 38:0.016627079 39:0.011876484 40:0.016627079 41:0.0071258908 42:0.016627079 43:0.028503563 44:0.030878861 45:0.019002376 46:0.023752969 47:0.021377672 48:0.021377672 49:0.014251782 50:0.014251782 51:0.014251782 52:0.026128266 53:0.011876484 54:0.004750594 55:0.023752969 56:0.0095011881 57:0.023752969 58:0.021377672 59:0.014251782 60:0.011876484 61:0.026128266 62:0.023752969 63:0.028503563 64:0.026128266 #
-3 1:0.018518519 2:0 3:0 4:0 5:0.018518519 6:0.018518519 7:0.018518519 8:0.037037037 9:0.018518519 10:0.018518519 11:0.037037037 12:0.018518519 13:0.018518519 14:0 15:0 16:0.018518519 17:0.037037037 18:0.018518519 19:0 20:0.018518519 21:0.018518519 22:0.12962963 23:0.037037037 24:0.037037037 25:0.018518519 26:0.018518519 27:0 28:0 29:0.037037037 30:0.037037037 31:0.018518519 32:0 33:0 34:0.037037037 35:0 36:0 37:0 38:0.018518519 39:0.037037037 40:0.018518519 41:0 42:0.018518519 43:0 44:0 45:0 46:0.037037037 47:0 48:0 49:0.018518519 50:0.055555556 51:0 52:0.018518519 53:0 54:0.037037037 55:0.018518519 56:0 57:0.018518519 58:0 59:0 60:0 61:0 62:0 63:0 64:0 #
-1.7817786290990707 1:0.024691358 2:0.049382716 3:0 4:0 5:0.049382716 6:0.037037037 7:0 8:0.012345679 9:0.024691358 10:0.012345679 11:0 12:0 13:0.012345679 14:0.012345679 15:0.037037037 16:0 17:0.037037037 18:0 19:0.024691358 20:0 21:0.024691358 22:0.012345679 23:0.024691358 24:0.012345679 25:0.012345679 26:0.037037037 27:0.012345679 28:0.037037037 29:0 30:0.037037037 31:0.012345679 32:0.037037037 33:0.024691358 34:0 35:0.012345679 36:0.012345679 37:0.024691358 38:0.012345679 39:0 40:0.037037037 41:0 42:0.012345679 43:0 44:0 45:0 46:0.012345679 47:0 48:0.012345679 49:0.024691358 50:0.024691358 51:0.012345679 52:0.012345679 53:0 54:0.024691358 55:0.012345679 56:0.037037037 57:0 58:0.024691358 59:0 60:0 61:0 62:0.024691358 63:0.012345679 64:0.037037037 #
-3 1:0 2:0.011235955 3:0 4:0.011235955 5:0.011235955 6:0.011235955 7:0 8:0.02247191 9:0 10:0.02247191 11:0 12:0 13:0 14:0.011235955 15:0.011235955 16:0.02247191 17:0 18:0.033707865 19:0.02247191 20:0 21:0.02247191 22:0.044943821 23:0.02247191 24:0 25:0.011235955 26:0.011235955 27:0 28:0.033707865 29:0.011235955 30:0.011235955 31:0.056179777 32:0.011235955 33:0.011235955 34:0 35:0 36:0.033707865 37:0.011235955 38:0.011235955 39:0 40:0.044943821 41:0 42:0.011235955 43:0 44:0 45:0.011235955 46:0 47:0 48:0.056179777 49:0 50:0 51:0.011235955 52:0.011235955 53:0.011235955 54:0.033707865 55:0 56:0.033707865 57:0 58:0.056179777 59:0 60:0.044943821 61:0.033707865 62:0.011235955 63:0.067415729 64:0.067415729 #
-3 1:0.011520738 2:0.0092165899 3:0.01843318 4:0.0092165899 5:0.0069124424 6:0.013824885 7:0.020737328 8:0.013824885 9:0.029953917 10:0.013824885 11:0.011520738 12:0.02764977 13:0.013824885 14:0.01843318 15:0.016129032 16:0.020737328 17:0.0069124424 18:0.016129032 19:0.020737328 20:0.01843318 21:0.02764977 22:0.020737328 23:0.020737328 24:0.011520738 25:0.0069124424 26:0.016129032 27:0.011520738 28:0.013824885 29:0.02764977 30:0.0092165899 31:0.01843318 32:0.0023041475 33:0.029953917 34:0.02764977 35:0.013824885 36:0.013824885 37:0.0092165899 38:0.013824885 39:0.0023041475 40:0.020737328 41:0.013824885 42:0.020737328 43:0.013824885 44:0.016129032 45:0.01843318 46:0.0046082949 47:0.011520738 48:0.016129032 49:0.013824885 50:0.016129032 51:0.01843318 52:0.011520738 53:0.011520738 54:0.013824885 55:0.023041476 56:0.016129032 57:0.016129032 58:0.020737328 59:0.0069124424 60:0.011520738 61:0.011520738 62:0.013824885 63:0.020737328 64:0.023041476 #
5.2411033282851722 1:0 2:0.007751938 3:0.015503876 4:0 5:0 6:0.007751938 7:0.007751938 8:0.007751938 9:0.03875969 10:0.007751938 11:0.031007752 12:0.023255814 13:0.015503876 14:0.015503876 15:0.03875969 16:0.023255814 17:0.007751938 18:0 19:0.015503876 20:0.007751938 21:0.007751938 22:0 23:0 24:0.015503876 25:0 26:0.007751938 27:0 28:0.023255814 29:0.007751938 30:0.031007752 31:0.007751938 32:0.023255814 33:0.03875969 34:0.007751938 35:0.015503876 36:0.031007752 37:0.015503876 38:0.015503876 39:0.007751938 40:0.015503876 41:0.031007752 42:0 43:0.015503876 44:0.054263566 45:0.015503876 46:0.007751938 47:0.015503876 48:0.007751938 49:0.007751938 50:0.007751938 51:0.054263566 52:0.023255814 53:0.007751938 54:0.015503876 55:0.015503876 56:0.007751938 57:0.023255814 58:0.007751938 59:0.007751938 60:0.023255814 61:0.015503876 62:0.015503876 63:0.046511628 64:0.031007752 #
-1.1280174756679746 1:0.018867925 2:0.0094339624 3:0.03773585 4:0.0094339624 5:0.0094339624 6:0 7:0 8:0.018867925 9:0.047169812 10:0.018867925 11:0.018867925 12:0.0094339624 13:0.0094339624 14:0.0094339624 15:0.028301887 16:0.028301887 17:0.018867925 18:0.018867925 19:0.0094339624 20:0.028301887 21:0.0094339624 22:0 23:0.028301887 24:0.018867925 25:0 26:0 27:0.028301887 28:0.0094339624 29:0.018867925 30:0 31:0 32:0.0094339624 33:0.028301887 34:0 35:0.018867925 36:0.0094339624 37:0 38:0.0094339624 39:0.018867925 40:0.018867925 41:0.018867925 42:0.03773585 43:0.0094339624 44:0 45:0.028301887 46:0.018867925 47:0.018867925 48:0.028301887 49:0.018867925 50:0.018867925 51:0.0094339624 52:0.0094339624 53:0.018867925 54:0.0094339624 55:0.018867925 56:0.028301887 57:0.0094339624 58:0.0094339624 59:0.0094339624 60:0.028301887 61:0.0094339624 62:0.03773585 63:0.0094339624 64:0.018867925 #
-3 1:0.014150944 2:0.018867925 3:0.023584906 4:0.014150944 5:0.0094339624 6:0.014150944 7:0.023584906 8:0.018867925 9:0.033018868 10:0.0047169812 11:0.03773585 12:0.018867925 13:0.014150944 14:0.0094339624 15:0.023584906 16:0.0047169812 17:0.014150944 18:0.014150944 19:0.0094339624 20:0.014150944 21:0 22:0.0047169812 23:0.018867925 24:0.018867925 25:0.023584906 26:0.018867925 27:0.0094339624 28:0.0094339624 29:0.023584906 30:0 31:0.023584906 32:0.0047169812 33:0.028301887 34:0.018867925 35:0.018867925 36:0.03773585 37:0.014150944 38:0.0047169812 39:0.018867925 40:0.0047169812 41:0.018867925 42:0.014150944 43:0.0047169812 44:0.018867925 45:0.0094339624 46:0.023584906 47:0.023584906 48:0.023584906 49:0.014150944 50:0.0094339624 51:0.018867925 52:0.014150944 53:0.023584906 54:0.0094339624 55:0 56:0.014150944 57:0.033018868 58:0.023584906 59:0.018867925 60:0.0047169812 61:0.0094339624 62:0.014150944 63:0.014150944 64:0.0047169812 #
-3 1:0.0052083335 2:0.0052083335 3:0.010416667 4:0.010416667 5:0.010416667 6:0.0052083335 7:0.010416667 8:0.010416667 9:0.015625 10:0.026041666 11:0.020833334 12:0.020833334 13:0.015625 14:0.010416667 15:0.026041666 16:0.0052083335 17:0.010416667 18:0.010416667 19:0.010416667 20:0 21:0.015625 22:0.020833334 23:0.0052083335 24:0.026041666 25:0.010416667 26:0 27:0.026041666 28:0.015625 29:0 30:0.010416667 31:0.020833334 32:0.020833334 33:0.020833334 34:0.010416667 35:0.03125 36:0.03125 37:0.0052083335 38:0.010416667 39:0.03125 40:0.015625 41:0.020833334 42:0.015625 43:0.03125 44:0.026041666 45:0.015625 46:0.015625 47:0.026041666 48:0.020833334 49:0.010416667 50:0.010416667 51:0.010416667 52:0.015625 53:0.015625 54:0.0052083335 55:0.010416667 56:0.010416667 57:0.020833334 58:0.020833334 59:0.041666668 60:0.020833334 61:0.010416667 62:0.026041666 63:0.020833334 64:0.010416667 #
-3 1:0 2:0 3:0.015384615 4:0.015384615 5:0.0076923077 6:0.023076924 7:0.0076923077 8:0.0076923077 9:0.023076924 10:0.015384615 11:0.015384615 12:0.03846154 13:0.015384615 14:0.0076923077 15:0.030769231 16:0.023076924 17:0.0076923077 18:0.0076923077 19:0.015384615 20:0.030769231 21:0 22:0.046153847 23:0.0076923077 24:0.0076923077 25:0.0076923077 26:0.015384615 27:0.023076924 28:0.023076924 29:0 30:0.023076924 31:0 32:0.0076923077 33:0.015384615 34:0 35:0.015384615 36:0.03846154 37:0.015384615 38:0.015384615 39:0.0076923077 40:0.0076923077 41:0.015384615 42:0.0076923077 43:0 44:0.015384615 45:0.023076924 46:0.030769231 47:0.030769231 48:0.015384615 49:0.023076924 50:0.0076923077 51:0.015384615 52:0.030769231 53:0.023076924 54:0.0076923077 55:0.030769231 56:0.0076923077 57:0.023076924 58:0.0076923077 59:0.015384615 60:0.0076923077 61:0.046153847 62:0.0076923077 63:0.015384615 64:0.0076923077 #
3.3624923684823531 1:0 2:0 3:0 4:0.045454547 5:0 6:0 7:0.030303031 8:0.015151516 9:0 10:0.015151516 11:0 12:0.015151516 13:0.045454547 14:0.030303031 15:0 16:0 17:0 18:0.030303031 19:0 20:0.030303031 21:0.045454547 22:0.045454547 23:0.030303031 24:0.015151516 25:0 26:0.015151516 27:0.015151516 28:0.015151516 29:0.030303031 30:0.030303031 31:0 32:0.015151516 33:0 34:0.030303031 35:0 36:0.015151516 37:0 38:0.030303031 39:0 40:0.015151516 41:0 42:0.015151516 43:0.015151516 44:0.015151516 45:0 46:0 47:0.015151516 48:0.015151516 49:0.045454547 50:0 51:0 52:0 53:0.015151516 54:0.045454547 55:0.015151516 56:0.015151516 57:0.030303031 58:0 59:0 60:0.015151516 61:0 62:0.015151516 63:0.045454547 64:0.075757578 #
3.8981017048295796 1:0.06185567 2:0.005154639 3:0.025773196 4:0.010309278 5:0 6:0.015463918 7:0.025773196 8:0.025773196 9:0.015463918 10:0 11:0.015463918 12:0.005154639 13:0.020618556 14:0.015463918 15:0.025773196 16:0.005154639 17:0.015463918 18:0.025773196 19:0.010309278 20:0.010309278 21:0.010309278 22:0.072164945 23:0.005154639 24:0.030927835 25:0.051546391 26:0.025773196 27:0 28:0.020618556 29:0.010309278 30:0.020618556 31:0.010309278 32:0.010309278 33:0.015463918 34:0.020618556 35:0.005154639 36:0.005154639 37:0.015463918 38:0.025773196 39:0.010309278 40:0.015463918 41:0.020618556 42:0 43:0.005154639 44:0.020618556 45:0.005154639 46:0.010309278 47:0.005154639 48:0.015463918 49:0.005154639 50:0.036082473 51:0.015463918 52:0.005154639 53:0.010309278 54:0.030927835 55:0.015463918 56:0.020618556 57:0.005154639 58:0 59:0.005154639 60:0.005154639 61:0.005154639 62:0.025773196 63:0.015463918 64:0 #
0.80250371636696693 1:0 2:0 3:0 4:0 5:0.010989011 6:0.065934069 7:0 8:0.021978023 9:0 10:0.021978023 11:0 12:0 13:0.021978023 14:0.021978023 15:0 16:0.032967035 17:0.010989011 18:0.054945055 19:0.010989011 20:0.054945055 21:0.043956045 22:0.10989011 23:0.021978023 24:0.021978023 25:0 26:0 27:0 28:0.021978023 29:0.021978023 30:0.054945055 31:0.010989011 32:0 33:0.010989011 34:0 35:0.010989011 36:0.010989011 37:0.010989011 38:0.021978023 39:0.010989011 40:0.021978023 41:0 42:0 43:0 44:0 45:0 46:0.021978023 47:0 48:0 49:0.010989011 50:0.021978023 51:0 52:0 53:0.043956045 54:0.032967035 55:0.010989011 56:0.010989011 57:0 58:0.021978023 59:0.021978023 60:0.021978023 61:0.010989011 62:0 63:0.010989011 64:0.021978023 #
-1.0079024297286994 1:0.045454547 2:0.015151516 3:0.030303031 4:0 5:0.030303031 6:0.030303031 7:0.030303031 8:0 9:0.015151516 10:0.015151516 11:0 12:0 13:0 14:0.045454547 15:0.015151516 16:0 17:0.030303031 18:0 19:0 20:0.015151516 21:0.030303031 22:0.015151516 23:0 24:0.015151516 25:0.015151516 26:0.030303031 27:0.015151516 28:0.015151516 29:0 30:0.030303031 31:0.030303031 32:0.045454547 33:0.015151516 34:0.045454547 35:0.015151516 36:0.030303031 37:0.015151516 38:0.015151516 39:0.015151516 40:0.030303031 41:0.015151516 42:0 43:0 44:0.015151516 45:0 46:0 47:0.015151516 48:0 49:0.015151516 50:0.015151516 51:0 52:0.015151516 53:0.015151516 54:0.015151516 55:0.015151516 56:0 57:0.030303031 58:0 59:0.030303031 60:0.030303031 61:0 62:0.015151516 63:0.015151516 64:0 #
-0.65417341279108088 1:0.024691358 2:0.012345679 3:0.012345679 4:0.012345679 5:0.024691358 6:0.024691358 7:0.049382716 8:0.049382716 9:0.012345679 10:0 11:0.024691358 12:0 13:0.012345679 14:0.024691358 15:0 16:0.012345679 17:0.037037037 18:0.061728396 19:0.012345679 20:0.024691358 21:0.012345679 22:0.024691358 23:0 24:0 25:0.024691358 26:0.012345679 27:0.012345679 28:0.012345679 29:0.024691358 30:0.012345679 31:0.012345679 32:0.024691358 33:0.012345679 34:0.024691358 35:0.024691358 36:0 37:0.012345679 38:0.024691358 39:0.012345679 40:0.012345679 41:0.024691358 42:0.012345679 43:0 44:0 45:0.024691358 46:0.012345679 47:0 48:0 49:0 50:0 51:0.024691358 52:0.024691358 53:0.024691358 54:0.037037037 55:0.012345679 56:0 57:0.024691358 58:0.012345679 59:0 60:0.012345679 61:0.012345679 62:0.012345679 63:0 64:0 #
-2.5762099643488332 1:0 2:0 3:0 4:0 5:0 6:0.04255319 7:0 8:0.021276595 9:0 10:0 11:0.021276595 12:0.021276595 13:0 14:0 15:0 16:0 17:0 18:0.04255319 19:0.021276595 20:0 21:0.04255319 22:0.04255319 23:0 24:0.021276595 25:0 26:0.021276595 27:0 28:0.04255319 29:0 30:0.063829787 31:0.021276595 32:0.04255319 33:0 34:0 35:0 36:0.021276595 37:0 38:0.021276595 39:0.021276595 40:0.021276595 41:0.021276595 42:0 43:0.04255319 44:0 45:0.021276595 46:0.04255319 47:0.021276595 48:0.021276595 49:0 50:0 51:0.021276595 52:0.021276595 53:0 54:0.063829787 55:0.04255319 56:0.021276595 57:0 58:0.021276595 59:0.021276595 60:0.021276595 61:0.021276595 62:0 63:0.021276595 64:0 #
8.3375545778329663 1:0 2:0 3:0 4:0 5:0 6:0.018867925 7:0.0094339624 8:0.018867925 9:0.0094339624 10:0.028301887 11:0.0094339624 12:0.0094339624 13:0.018867925 14:0 15:0.018867925 16:0.047169812 17:0.0094339624 18:0.018867925 19:0.018867925 20:0.018867925 21:0.018867925 22:0.0094339624 23:0.0094339624 24:0 25:0.0094339624 26:0.0094339624 27:0.0094339624 28:0.03773585 29:0 30:0.018867925 31:0.03773585 32:0.018867925 33:0 34:0 35:0.0094339624 36:0.028301887 37:0.018867925 38:0 39:0 40:0.047169812 41:0 42:0.0094339624 43:0 44:0.0094339624 45:0.018867925 46:0.028301887 47:0.0094339624 48:0.028301887 49:0.018867925 50:0.018867925 51:0.0094339624 52:0.028301887 53:0.0094339624 54:0.028301887 55:0.018867925 56:0.047169812 57:0.018867925 58:0.03773585 59:0 60:0.018867925 61:0.028301887 62:0.028301887 63:0.047169812 64:0 #
9 1:0.024590164 2:0.016393442 3:0.016393442 4:0.0081967209 5:0.016393442 6:0.016393442 7:0.0081967209 8:0.016393442 9:0 10:0.0081967209 11:0.016393442 12:0.024590164 13:0.016393442 14:0.0081967209 15:0.016393442 16:0.016393442 17:0 18:0 19:0 20:0.032786883 21:0 22:0.0081967209 23:0.016393442 24:0 25:0.016393442 26:0.016393442 27:0.024590164 28:0.0081967209 29:0.024590164 30:0.0081967209 31:0.016393442 32:0.016393442 33:0.0081967209 34:0.024590164 35:0.024590164 36:0.016393442 37:0.0081967209 38:0.0081967209 39:0.0081967209 40:0.0081967209 41:0.016393442 42:0.016393442 43:0.016393442 44:0.040983606 45:0.024590164 46:0.024590164 47:0.024590164 48:0.032786883 49:0.024590164 50:0 51:0.016393442 52:0.024590164 53:0.024590164 54:0 55:0.040983606 56:0 57:0.024590164 58:0.0081967209 59:0.016393442 60:0.040983606 61:0 62:0.016393442 63:0.040983606 64:0 #
8.3170867367426382 1:0.0080645159 2:0.0080645159 3:0.016129032 4:0.0080645159 5:0 6:0.0080645159 7:0.016129032 8:0 9:0.024193548 10:0.0080645159 11:0.016129032 12:0.032258064 13:0.016129032 14:0.016129032 15:0.024193548 16:0.024193548 17:0 18:0 19:0.0080645159 20:0.016129032 21:0.016129032 22:0 23:0 24:0.016129032 25:0.0080645159 26:0.016129032 27:0.0080645159 28:0.016129032 29:0 30:0.016129032 31:0.040322579 32:0.0080645159 33:0.024193548 34:0.0080645159 35:0.016129032 36:0.024193548 37:0.016129032 38:0.0080645159 39:0.016129032 40:0.016129032 41:0.032258064 42:0.0080645159 43:0.016129032 44:0.040322579 45:0.024193548 46:0.016129032 47:0.024193548 48:0.024193548 49:0.016129032 50:0.0080645159 51:0.056451611 52:0.016129032 53:0.0080645159 54:0.0080645159 55:0.0080645159 56:0.016129032 57:0.0080645159 58:0.024193548 59:0.032258064 60:0.024193548 61:0.024193548 62:0.0080645159 63:0.016129032 64:0.016129032 #
-3 1:0.0069930069 2:0.020979021 3:0.013986014 4:0.013986014 5:0.013986014 6:0.013986014 7:0 8:0.027972028 9:0.013986014 10:0.0069930069 11:0.027972028 12:0.013986014 13:0.0069930069 14:0 15:0.013986014 16:0.013986014 17:0.0069930069 18:0.013986014 19:0.013986014 20:0.013986014 21:0.0069930069 22:0.041958041 23:0.0069930069 24:0 25:0.0069930069 26:0.034965035 27:0.020979021 28:0.0069930069 29:0.027972028 30:0 31:0.041958041 32:0 33:0.0069930069 34:0.0069930069 35:0.020979021 36:0.013986014 37:0.0069930069 38:0 39:0.020979021 40:0.027972028 41:0.020979021 42:0.020979021 43:0.020979021 44:0.020979021 45:0.020979021 46:0.013986014 47:0.013986014 48:0.041958041 49:0.020979021 50:0.0069930069 51:0.0069930069 52:0.013986014 53:0.013986014 54:0.034965035 55:0.020979021 56:0.013986014 57:0.013986014 58:0.020979021 59:0.0069930069 60:0.027972028 61:0.013986014 62:0.0069930069 63:0.034965035 64:0.0069930069 #
-2.2732148870999231 1:0 2:0.01980198 3:0.01980198 4:0.0099009899 5:0 6:0.0099009899 7:0.01980198 8:0.0099009899 9:0.0099009899 10:0.0099009899 11:0 12:0.029702971 13:0.01980198 14:0.0099009899 15:0.0099009899 16:0.01980198 17:0.01980198 18:0.0099009899 19:0.029702971 20:0.0099009899 21:0.01980198 22:0.0099009899 23:0.0099009899 24:0 25:0.0099009899 26:0 27:0.01980198 28:0.01980198 29:0.029702971 30:0.01980198 31:0.0099009899 32:0 33:0 34:0.01980198 35:0.0099009899 36:0 37:0.01980198 38:0.0099009899 39:0.0099009899 40:0.03960396 41:0.029702971 42:0.03960396 43:0.01980198 44:0.049504951 45:0.01980198 46:0 47:0.029702971 48:0.01980198 49:0.0099009899 50:0.01980198 51:0.0099009899 52:0.0099009899 53:0.0099009899 54:0.0099009899 55:0.029702971 56:0 57:0.0099009899 58:0.01980198 59:0.029702971 60:0.029702971 61:0 62:0 63:0.059405942 64:0.01980198 #
-1.03229663184326 1:0.012195121 2:0.012195121 3:0.018292682 4:0.0060975607 5:0.0060975607 6:0.0060975607 7:0.018292682 8:0.012195121 9:0.024390243 10:0.030487806 11:0.024390243 12:0.018292682 13:0.0060975607 14:0.012195121 15:0.012195121 16:0.018292682 17:0.012195121 18:0 19:0.024390243 20:0.024390243 21:0.012195121 22:0 23:0.012195121 24:0 25:0.012195121 26:0.012195121 27:0.018292682 28:0.024390243 29:0 30:0.012195121 31:0.024390243 32:0.0060975607 33:0.018292682 34:0.0060975607 35:0.024390243 36:0.0060975607 37:0.030487806 38:0 39:0.0060975607 40:0.024390243 41:0.030487806 42:0.018292682 43:0.0060975607 44:0.018292682 45:0.024390243 46:0.024390243 47:0.018292682 48:0.036585364 49:0.0060975607 50:0.018292682 51:0.036585364 52:0.012195121 53:0.012195121 54:0.018292682 55:0.012195121 56:0.024390243 57:0.0060975607 58:0.018292682 59:0.0060975607 60:0.024390243 61:0.024390243 62:0.0060975607 63:0.030487806 64:0.018292682 #
9 1:0 2:0.0069444445 3:0.0069444445 4:0.0069444445 5:0.0069444445 6:0.027777778 7:0.027777778 8:0.013888889 9:0.020833334 10:0.020833334 11:0.034722224 12:0.0069444445 13:0.013888889 14:0.020833334 15:0.0069444445 16:0.020833334 17:0.041666668 18:0.027777778 19:0.034722224 20:0.034722224 21:0.027777778 22:0.0069444445 23:0.013888889 24:0.013888889 25:0.013888889 26:0.013888889 27:0.020833334 28:0 29:0.0069444445 30:0.027777778 31:0 32:0.027777778 33:0 34:0.034722224 35:0.020833334 36:0 37:0.020833334 38:0 39:0.020833334 40:0.020833334 41:0.027777778 42:0.020833334 43:0.013888889 44:0 45:0.013888889 46:0.013888889 47:0.013888889 48:0 49:0 50:0.020833334 51:0 52:0.0069444445 53:0.020833334 54:0.041666668 55:0.0069444445 56:0.041666668 57:0.013888889 58:0.013888889 59:0 60:0 61:0.013888889 62:0.013888889 63:0 64:0.027777778 #
6.6580960800651239 1:0 2:0.051546391 3:0.030927835 4:0.010309278 5:0.030927835 6:0.010309278 7:0.020618556 8:0 9:0.041237112 10:0.020618556 11:0.020618556 12:0.010309278 13:0.010309278 14:0.041237112 15:0.010309278 16:0.010309278 17:0.041237112 18:0.010309278 19:0.051546391 20:0.010309278 21:0.041237112 22:0 23:0.010309278 24:0.030927835 25:0.010309278 26:0.010309278 27:0.010309278 28:0 29:0 30:0 31:0.020618556 32:0.010309278 33:0.030927835 34:0.020618556 35:0 36:0.020618556 37:0.030927835 38:0 39:0.020618556 40:0.010309278 41:0.020618556 42:0.030927835 43:0 44:0.010309278 45:0.010309278 46:0.010309278 47:0.020618556 48:0.010309278 49:0.010309278 50:0.010309278 51:0.010309278 52:0.010309278 53:0.020618556 54:0.010309278 55:0.010309278 56:0.010309278 57:0.010309278 58:0.030927835 59:0.010309278 60:0.010309278 61:0.010309278 62:0 63:0 64:0.010309278 #
0.38923108315290822 1:0.032608695 2:0.021739131 3:0.010869565 4:0.010869565 5:0 6:0 7:0 8:0 9:0.032608695 10:0 11:0.010869565 12:0.010869565 13:0.054347824 14:0.010869565 15:0.021739131 16:0.065217391 17:0.021739131 18:0.010869565 19:0 20:0 21:0.021739131 22:0 23:0.021739131 24:0 25:0 26:0 27:0 28:0.010869565 29:0 30:0 31:0.021739131 32:0.021739131 33:0.021739131 34:0 35:0.010869565 36:0.010869565 37:0.010869565 38:0.010869565 39:0.021739131 40:0.010869565 41:0 42:0.021739131 43:0.032608695 44:0.032608695 45:0.021739131 46:0.021739131 47:0.021739131 48:0.021739131 49:0.032608695 50:0.010869565 51:0.032608695 52:0.043478262 53:0 54:0 55:0.010869565 56:0.021739131 57:0.010869565 58:0.021739131 59:0.043478262 60:0.043478262 61:0.010869565 62:0 63:0.010869565 64:0.021739131 #
-0.81340225337622585 1:0 2:0.010989011 3:0.010989011 4:0.043956045 5:0.021978023 6:0.021978023 7:0.010989011 8:0.021978023 9:0.043956045 10:0.032967035 11:0.010989011 12:0 13:0.043956045 14:0.010989011 15:0.010989011 16:0.010989011 17:0.043956045 18:0.032967035 19:0.032967035 20:0.010989011 21:0.021978023 22:0.010989011 23:0.065934069 24:0 25:0 26:0.032967035 27:0.010989011 28:0.021978023 29:0 30:0 31:0 32:0 33:0.032967035 34:0.010989011 35:0.010989011 36:0.021978023 37:0.010989011 38:0.043956045 39:0.021978023 40:0 41:0 42:0.021978023 43:0.032967035 44:0 45:0.021978023 46:0.021978023 47:0.010989011 48:0 49:0.032967035 50:0.010989011 51:0.010989011 52:0 53:0.021978023 54:0 55:0 56:0 57:0 58:0.021978023 59:0.021978023 60:0.010989011 61:0.010989011 62:0 63:0 64:0 #
-2.1977938578410106 1:0.0075187972 2:0.030075189 3:0.022556391 4:0.045112781 5:0.030075189 6:0.0075187972 7:0.030075189 8:0.0075187972 9:0.060150377 10:0.037593983 11:0.0075187972 12:0.0075187972 13:0.022556391 14:0.0075187972 15:0.0075187972 16:0 17:0.045112781 18:0.015037594 19:0.0075187972 20:0.022556391 21:0.0075187972 22:0.022556391 23:0.015037594 24:0.015037594 25:0 26:0.015037594 27:0.0075187972 28:0.015037594 29:0.022556391 30:0.022556391 31:0.045112781 32:0 33:0.022556391 34:0.022556391 35:0.0075187972 36:0.030075189 37:0.015037594 38:0.015037594 39:0.0075187972 40:0.022556391 41:0 42:0.022556391 43:0 44:0.015037594 45:0.0075187972 46:0.0075187972 47:0 48:0.0075187972 49:0.045112781 50:0.0075187972 51:0.0075187972 52:0 53:0.030075189 54:0.030075189 55:0.015037594 56:0.0075187972 57:0.0075187972 58:0 59:0 60:0 61:0.0075187972 62:0.015037594 63:0.015037594 64:0 #
-3 1:0.0081967209 2:0.016393442 3:0.0081967209 4:0.024590164 5:0.016393442 6:0.024590164 7:0.016393442 8:0.0081967209 9:0.0081967209 10:0.024590164 11:0.016393442 12:0 13:0.016393442 14:0.032786883 15:0.016393442 16:0.024590164 17:0.016393442 18:0.024590164 19:0.032786883 20:0.024590164 21:0.040983606 22:0.024590164 23:0.0081967209 24:0.016393442 25:0.0081967209 26:0.0081967209 27:0.0081967209 28:0.016393442 29:0 30:0.016393442 31:0.016393442 32:0.0081967209 33:0.016393442 34:0.016393442 35:0.024590164 36:0.016393442 37:0.016393442 38:0.024590164 39:0 40:0 41:0.0081967209 42:0.0081967209 43:0.0081967209 44:0.0081967209 45:0.024590164 46:0 47:0.016393442 48:0.024590164 49:0.0081967209 50:0.0081967209 51:0 52:0.016393442 53:0.024590164 54:0 55:0.016393442 56:0.024590164 57:0.032786883 58:0.024590164 59:0.016393442 60:0.016393442 61:0.016393442 62:0.016393442 63:0.0081967209 64:0.024590164 #
9 1:0 2:0.015151516 3:0.022727273 4:0.0075757578 5:0 6:0 7:0.0075757578 8:0.022727273 9:0 10:0.0075757578 11:0.015151516 12:0.022727273 13:0.015151516 14:0.0075757578 15:0 16:0.0075757578 17:0 18:0 19:0.022727273 20:0.022727273 21:0 22:0 23:0 24:0.030303031 25:0.0075757578 26:0.015151516 27:0.0075757578 28:0.053030305 29:0.015151516 30:0.030303031 31:0.030303031 32:0.0075757578 33:0.0075757578 34:0 35:0.015151516 36:0.0075757578 37:0.022727273 38:0.022727273 39:0.015151516 40:0.030303031 41:0.022727273 42:0.015151516 43:0.0075757578 44:0.0075757578 45:0.022727273 46:0.015151516 47:0.015151516 48:0.037878789 49:0.0075757578 50:0.0075757578 51:0.015151516 52:0.0075757578 53:0.0075757578 54:0.022727273 55:0.030303031 56:0.022727273 57:0.015151516 58:0.022727273 59:0.022727273 60:0.022727273 61:0.0075757578 62:0.060606062 63:0.037878789 64:0.030303031 #
-0.32258820477974998 1:0.0071428572 2:0.010714286 3:0.0035714286 4:0.014285714 5:0.010714286 6:0.0035714286 7:0.010714286 8:0.025 9:0.010714286 10:0.0071428572 11:0.010714286 12:0.025 13:0.021428572 14:0.021428572 15:0.032142859 16:0.0071428572 17:0.0071428572 18:0.017857144 19:0.014285714 20:0.010714286 21:0.0071428572 22:0.0035714286 23:0.014285714 24:0.021428572 25:0.017857144 26:0.021428572 27:0.017857144 28:0 29:0.017857144 30:0 31:0.021428572 32:0.017857144 33:0.0071428572 34:0.0071428572 35:0.017857144 36:0.028571429 37:0.010714286 38:0.017857144 39:0.017857144 40:0.0035714286 41:0.010714286 42:0.017857144 43:0.0035714286 44:0.032142859 45:0.017857144 46:0.021428572 47:0.010714286 48:0.035714287 49:0.028571429 50:0.014285714 51:0.010714286 52:0.021428572 53:0.014285714 54:0.017857144 55:0.017857144 56:0.014285714 57:0.017857144 58:0.021428572 59:0.017857144 60:0.025 61:0.014285714 62:0.0071428572 63:0.035714287 64:0.028571429 #
2.5031872220280014 1:0.010204081 2:0 3:0.010204081 4:0 5:0.010204081 6:0.020408163 7:0.010204081 8:0 9:0 10:0.010204081 11:0.020408163 12:0.010204081 13:0 14:0.030612245 15:0.030612245 16:0.010204081 17:0 18:0.010204081 19:0.030612245 20:0.030612245 21:0.020408163 22:0.020408163 23:0 24:0.010204081 25:0.010204081 26:0.020408163 27:0 28:0.030612245 29:0 30:0.040816326 31:0 32:0.020408163 33:0 34:0.020408163 35:0.010204081 36:0.030612245 37:0.010204081 38:0.030612245 39:0.030612245 40:0 41:0.040816326 42:0 43:0.010204081 44:0.05102041 45:0.010204081 46:0 47:0.020408163 48:0.020408163 49:0.010204081 50:0 51:0.010204081 52:0 53:0.020408163 54:0.010204081 55:0.010204081 56:0.020408163 57:0.020408163 58:0 59:0.05102041 60:0.030612245 61:0.010204081 62:0.020408163 63:0.05102041 64:0.030612245 #
-2.9578254485127484 1:0.023255814 2:0 3:0 4:0 5:0 6:0.023255814 7:0 8:0 9:0 10:0 11:0 12:0 13:0.023255814 14:0 15:0 16:0.023255814 17:0 18:0.023255814 19:0.023255814 20:0.023255814 21:0 22:0 23:0.046511628 24:0.023255814 25:0 26:0.023255814 27:0.023255814 28:0.046511628 29:0 30:0.023255814 31:0 32:0.023255814 33:0.023255814 34:0 35:0 36:0 37:0 38:0.046511628 39:0 40:0 41:0 42:0.023255814 43:0.023255814 44:0.069767445 45:0 46:0.046511628 47:0.046511628 48:0.023255814 49:0 50:0 51:0 52:0 53:0.023255814 54:0 55:0.069767445 56:0.046511628 57:0 58:0.023255814 59:0.023255814 60:0.023255814 61:0 62:0.046511628 63:0.046511628 64:0.023255814 #
-3 1:0.051948052 2:0.012987013 3:0.012987013 4:0 5:0.012987013 6:0.012987013 7:0 8:0 9:0.012987013 10:0 11:0 12:0.051948052 13:0.038961038 14:0.012987013 15:0 16:0.025974026 17:0.038961038 18:0 19:0 20:0.012987013 21:0 22:0 23:0 24:0.012987013 25:0 26:0.012987013 27:0.025974026 28:0.012987013 29:0.025974026 30:0.012987013 31:0.025974026 32:0.012987013 33:0.012987013 34:0.025974026 35:0 36:0 37:0.012987013 38:0.012987013 39:0.038961038 40:0 41:0 42:0.025974026 43:0.038961038 44:0.012987013 45:0 46:0.012987013 47:0.025974026 48:0.038961038 49:0.012987013 50:0.025974026 51:0.012987013 52:0.012987013 53:0.012987013 54:0 55:0.038961038 56:0.051948052 57:0 58:0.012987013 59:0.038961038 60:0.012987013 61:0.012987013 62:0.012987013 63:0 64:0.038961038 #
-1.5704521538689984 1:0 2:0 3:0.029411765 4:0.014705882 5:0 6:0 7:0.044117648 8:0 9:0 10:0.014705882 11:0.014705882 12:0 13:0 14:0 15:0.044117648 16:0.014705882 17:0 18:0 19:0.029411765 20:0.014705882 21:0 22:0.014705882 23:0 24:0 25:0 26:0.05882353 27:0.014705882 28:0.014705882 29:0 30:0 31:0.029411765 32:0 33:0 34:0 35:0.014705882 36:0.029411765 37:0.014705882 38:0.044117648 39:0.029411765 40:0 41:0.05882353 42:0 43:0.014705882 44:0.029411765 45:0.029411765 46:0.029411765 47:0 48:0.05882353 49:0 50:0 51:0.029411765 52:0.014705882 53:0 54:0.014705882 55:0 56:0.014705882 57:0.05882353 58:0 59:0.014705882 60:0.044117648 61:0 62:0 63:0.044117648 64:0.05882353 #
9 1:0.020606061 2:0.027878787 3:0.0096969698 4:0.016969698 5:0.033939395 6:0.023030303 7:0.015757576 8:0.013333334 9:0.013333334 10:0.031515151 11:0.0084848488 12:0.0096969698 13:0.0084848488 14:0.012121212 15:0.018181818 16:0.012121212 17:0.031515151 18:0.030303031 19:0.020606061 20:0.018181818 21:0.023030303 22:0.029090909 23:0.024242423 24:0.015757576 25:0.016969698 26:0.016969698 27:0.018181818 28:0.0072727273 29:0.015757576 30:0.012121212 31:0.0096969698 32:0.010909091 33:0.0072727273 34:0.021818181 35:0.012121212 36:0.014545455 37:0.014545455 38:0.023030303 39:0.015757576 40:0.0060606059 41:0.010909091 42:0.013333334 43:0.0036363637 44:0.015757576 45:0.018181818 46:0.013333334 47:0.0084848488 48:0.015757576 49:0.016969698 50:0.0072727273 51:0.0084848488 52:0.010909091 53:0.023030303 54:0.013333334 55:0.015757576 56:0.012121212 57:0.010909091 58:0.012121212 59:0.0096969698 60:0.016969698 61:0.0096969698 62:0.014545455 63:0.015757576 64:0.012121212 #
5.5612031860486866 1:0.036363635 2:0.027272727 3:0.0090909088 4:0.0090909088 5:0.036363635 6:0.0090909088 7:0 8:0.036363635 9:0.0090909088 10:0.054545455 11:0.018181818 12:0.027272727 13:0.0090909088 14:0.0090909088 15:0.0090909088 16:0.0090909088 17:0.018181818 18:0.018181818 19:0.0090909088 20:0.027272727 21:0.036363635 22:0.027272727 23:0.018181818 24:0 25:0 26:0 27:0.0090909088 28:0 29:0.054545455 30:0.0090909088 31:0.036363635 32:0.0090909088 33:0.027272727 34:0.027272727 35:0.027272727 36:0.0090909088 37:0.0090909088 38:0.018181818 39:0 40:0.018181818 41:0 42:0 43:0.0090909088 44:0 45:0.0090909088 46:0 47:0.0090909088 48:0.027272727 49:0.0090909088 50:0.036363635 51:0 52:0.018181818 53:0.0090909088 54:0 55:0.027272727 56:0.018181818 57:0.027272727 58:0.018181818 59:0.0090909088 60:0.0090909088 61:0.018181818 62:0.018181818 63:0 64:0.0090909088 #
3.5143509307547727 1:0.023584906 2:0.023584906 3:0.0047169812 4:0.023584906 5:0.023584906 6:0.014150944 7:0.0094339624 8:0.018867925 9:0.0094339624 10:0.014150944 11:0.014150944 12:0.0094339624 13:0.0094339624 14:0.014150944 15:0.033018868 16:0.0094339624 17:0.014150944 18:0.023584906 19:0.014150944 20:0.023584906 21:0.023584906 22:0.028301887 23:0.033018868 24:0 25:0.0094339624 26:0.014150944 27:0.014150944 28:0.0047169812 29:0.018867925 30:0.0094339624 31:0.023584906 32:0.0094339624 33:0.0094339624 34:0.0094339624 35:0.0094339624 36:0.018867925 37:0.0094339624 38:0.023584906 39:0.023584906 40:0.023584906 41:0.014150944 42:0.028301887 43:0.014150944 44:0.0094339624 45:0 46:0.0094339624 47:0.018867925 48:0.018867925 49:0.018867925 50:0.0094339624 51:0.0047169812 52:0.023584906 53:0.0094339624 54:0.0094339624 55:0.0047169812 56:0.0094339624 57:0.028301887 58:0.028301887 59:0.023584906 60:0.0094339624 61:0.033018868 62:0.0047169812 63:0 64:0.023584906 #
-3 1:0.023972603 2:0.017123288 3:0.010273973 4:0.0034246575 5:0.020547945 6:0.030821918 7:0.01369863 8:0.010273973 9:0.017123288 10:0.010273973 11:0.01369863 12:0.017123288 13:0.006849315 14:0.01369863 15:0.017123288 16:0.01369863 17:0.023972603 18:0.02739726 19:0.023972603 20:0.010273973 21:0.02739726 22:0.030821918 23:0.020547945 24:0.023972603 25:0.01369863 26:0.02739726 27:0.010273973 28:0.010273973 29:0.01369863 30:0.010273973 31:0.01369863 32:0.006849315 33:0.017123288 34:0.010273973 35:0.006849315 36:0.017123288 37:0.010273973 38:0.020547945 39:0.023972603 40:0.017123288 41:0.010273973 42:0.017123288 43:0.006849315 44:0.01369863 45:0.01369863 46:0.017123288 47:0.02739726 48:0.020547945 49:0.0034246575 50:0.023972603 51:0.010273973 52:0.006849315 53:0.010273973 54:0.01369863 55:0.006849315 56:0.01369863 57:0.01369863 58:0.01369863 59:0.034246575 60:0.020547945 61:0.010273973 62:0.01369863 63:0.010273973 64:0.010273973 #
-3 1:0.0098039219 2:0.034313727 3:0.0098039219 4:0.004901961 5:0.019607844 6:0.024509804 7:0.0098039219 8:0.004901961 9:0.019607844 10:0.014705882 11:0.014705882 12:0.004901961 13:0.004901961 14:0.029411765 15:0.014705882 16:0.019607844 17:0.019607844 18:0.014705882 19:0.014705882 20:0.029411765 21:0.029411765 22:0.024509804 23:0.019607844 24:0.004901961 25:0.0098039219 26:0.024509804 27:0.014705882 28:0.019607844 29:0.004901961 30:0.019607844 31:0.0098039219 32:0.014705882 33:0.0098039219 34:0.0098039219 35:0.019607844 36:0.024509804 37:0.019607844 38:0.0098039219 39:0 40:0.019607844 41:0.014705882 42:0.004901961 43:0.0098039219 44:0.019607844 45:0.014705882 46:0.0098039219 47:0.029411765 48:0.019607844 49:0.014705882 50:0.004901961 51:0.014705882 52:0.0098039219 53:0.034313727 54:0.019607844 55:0.004901961 56:0.019607844 57:0.0098039219 58:0.014705882 59:0.019607844 60:0.024509804 61:0.0098039219 62:0.0098039219 63:0.029411765 64:0.0098039219 #
-2.6008950510805704 1:0.022988506 2:0.017241379 3:0.0057471264 4:0 5:0.017241379 6:0.017241379 7:0.017241379 8:0.017241379 9:0.017241379 10:0.017241379 11:0.045977011 12:0.011494253 13:0 14:0.011494253 15:0.028735632 16:0 17:0.011494253 18:0.022988506 19:0.011494253 20:0.034482758 21:0.011494253 22:0.017241379 23:0.028735632 24:0.011494253 25:0.028735632 26:0.011494253 27:0 28:0.011494253 29:0.0057471264 30:0.028735632 31:0.017241379 32:0.011494253 33:0.011494253 34:0.011494253 35:0.022988506 36:0.034482758 37:0.0057471264 38:0.017241379 39:0.017241379 40:0.017241379 41:0.022988506 42:0.028735632 43:0.017241379 44:0.011494253 45:0.011494253 46:0.011494253 47:0.022988506 48:0.011494253 49:0.011494253 50:0.0057471264 51:0.011494253 52:0.017241379 53:0.028735632 54:0.022988506 55:0.0057471264 56:0 57:0.028735632 58:0 59:0.017241379 60:0.0057471264 61:0.011494253 62:0.017241379 63:0.0057471264 64:0.022988506 #
1.0035186382946499 1:0.12987013 2:0 3:0.012987013 4:0.025974026 5:0.025974026 6:0 7:0.012987013 8:0 9:0.025974026 10:0.038961038 11:0 12:0 13:0.038961038 14:0.012987013 15:0.012987013 16:0.051948052 17:0 18:0 19:0.025974026 20:0.012987013 21:0 22:0 23:0 24:0 25:0 26:0.025974026 27:0.051948052 28:0 29:0 30:0 31:0 32:0.012987013 33:0.038961038 34:0 35:0.012987013 36:0.012987013 37:0.012987013 38:0.012987013 39:0.012987013 40:0.012987013 41:0 42:0.012987013 43:0.064935066 44:0.012987013 45:0.012987013 46:0 47:0.038961038 48:0 49:0.038961038 50:0 51:0.012987013 52:0.038961038 53:0.012987013 54:0.012987013 55:0 56:0.012987013 57:0.012987013 58:0 59:0.012987013 60:0.012987013 61:0.025974026 62:0.012987013 63:0 64:0.012987013 #
3.4392592654272764 1:0.023255814 2:0 3:0 4:0.023255814 5:0 6:0.023255814 7:0 8:0 9:0 10:0 11:0.023255814 12:0.069767445 13:0.023255814 14:0 15:0 16:0.046511628 17:0.023255814 18:0.023255814 19:0 20:0.023255814 21:0.023255814 22:0 23:0.023255814 24:0.023255814 25:0 26:0 27:0 28:0 29:0.023255814 30:0.023255814 31:0 32:0 33:0 34:0.023255814 35:0.046511628 36:0 37:0 38:0.023255814 39:0 40:0.023255814 41:0 42:0 43:0.046511628 44:0 45:0.069767445 46:0 47:0.023255814 48:0.023255814 49:0 50:0.023255814 51:0.023255814 52:0 53:0 54:0 55:0 56:0.023255814 57:0.023255814 58:0.023255814 59:0.046511628 60:0.023255814 61:0.023255814 62:0.023255814 63:0.023255814 64:0.046511628 #
-3 1:0 2:0.010989011 3:0.010989011 4:0.010989011 5:0 6:0 7:0.010989011 8:0.021978023 9:0 10:0.010989011 11:0.032967035 12:0.021978023 13:0.010989011 14:0.010989011 15:0.010989011 16:0.021978023 17:0.010989011 18:0.021978023 19:0.021978023 20:0.021978023 21:0.021978023 22:0.021978023 23:0.021978023 24:0.010989011 25:0.010989011 26:0.021978023 27:0 28:0.021978023 29:0.010989011 30:0 31:0.021978023 32:0.032967035 33:0 34:0.021978023 35:0 36:0.010989011 37:0.010989011 38:0.021978023 39:0.021978023 40:0.032967035 41:0.032967035 42:0.010989011 43:0.010989011 44:0.010989011 45:0.010989011 46:0.010989011 47:0.010989011 48:0.010989011 49:0 50:0 51:0.021978023 52:0.021978023 53:0 54:0.021978023 55:0.010989011 56:0.032967035 57:0.021978023 58:0.021978023 59:0 60:0.010989011 61:0.043956045 62:0.054945055 63:0.032967035 64:0.010989011 #
-3 1:0.028776979 2:0.0071942448 3:0.0071942448 4:0.0071942448 5:0.0071942448 6:0.0071942448 7:0.01438849 8:0.01438849 9:0.0071942448 10:0.01438849 11:0.0071942448 12:0.01438849 13:0.01438849 14:0.0071942448 15:0.01438849 16:0.01438849 17:0.0071942448 18:0.01438849 19:0 20:0.01438849 21:0.0071942448 22:0.028776979 23:0.0071942448 24:0.021582734 25:0.01438849 26:0 27:0.01438849 28:0.021582734 29:0.01438849 30:0.028776979 31:0.0071942448 32:0.035971224 33:0 34:0.021582734 35:0.0071942448 36:0.0071942448 37:0.0071942448 38:0.021582734 39:0.028776979 40:0.021582734 41:0.01438849 42:0.0071942448 43:0.021582734 44:0.035971224 45:0.01438849 46:0.021582734 47:0.0071942448 48:0.0071942448 49:0.021582734 50:0 51:0.021582734 52:0.021582734 53:0.01438849 54:0.01438849 55:0.021582734 56:0 57:0.0071942448 58:0.0071942448 59:0.021582734 60:0.035971224 61:0.0071942448 62:0.035971224 63:0.043165468 64:0.057553958 #
-3 1:0.023255814 2:0.023255814 3:0.007751938 4:0 5:0.031007752 6:0.007751938 7:0.007751938 8:0.015503876 9:0.007751938 10:0.023255814 11:0 12:0 13:0.007751938 14:0.031007752 15:0.007751938 16:0.031007752 17:0.015503876 18:0.015503876 19:0.007751938 20:0.031007752 21:0.007751938 22:0.023255814 23:0.007751938 24:0 25:0.007751938 26:0 27:0.015503876 28:0.023255814 29:0.023255814 30:0.007751938 31:0.015503876 32:0.031007752 33:0.023255814 34:0.015503876 35:0.023255814 36:0 37:0.023255814 38:0.007751938 39:0.015503876 40:0.023255814 41:0 42:0 43:0 44:0.007751938 45:0.007751938 46:0.031007752 47:0.007751938 48:0.023255814 49:0.007751938 50:0 51:0.023255814 52:0.007751938 53:0.023255814 54:0.007751938 55:0.023255814 56:0.007751938 57:0.007751938 58:0.023255814 59:0.031007752 60:0.069767445 61:0.007751938 62:0.015503876 63:0.023255814 64:0.054263566 #
0.73906296453556608 1:0.043478262 2:0 3:0 4:0.010869565 5:0 6:0.021739131 7:0.010869565 8:0.021739131 9:0.021739131 10:0.021739131 11:0.021739131 12:0.010869565 13:0 14:0.010869565 15:0.021739131 16:0 17:0 18:0.032608695 19:0.021739131 20:0 21:0.032608695 22:0.054347824 23:0 24:0.010869565 25:0 26:0.010869565 27:0.010869565 28:0.021739131 29:0.010869565 30:0.043478262 31:0.010869565 32:0.021739131 33:0.010869565 34:0 35:0.010869565 36:0.032608695 37:0 38:0.010869565 39:0.010869565 40:0 41:0.021739131 42:0.010869565 43:0.021739131 44:0.032608695 45:0.021739131 46:0.010869565 47:0.032608695 48:0.021739131 49:0.010869565 50:0.010869565 51:0.021739131 52:0.010869565 53:0.021739131 54:0.054347824 55:0.010869565 56:0.032608695 57:0.010869565 58:0 59:0.010869565 60:0 61:0.010869565 62:0 63:0.021739131 64:0.021739131 #
-1.4906161285149195 1:0.0083102491 2:0.013850415 3:0.016620498 4:0.022160664 5:0.0055401661 6:0.016620498 7:0.0083102491 8:0.0083102491 9:0.0083102491 10:0.0055401661 11:0.022160664 12:0.022160664 13:0.016620498 14:0.019390581 15:0.024930747 16:0.013850415 17:0.0055401661 18:0.016620498 19:0.013850415 20:0.022160664 21:0.013850415 22:0.0083102491 23:0.011080332 24:0.011080332 25:0.013850415 26:0.013850415 27:0.011080332 28:0.013850415 29:0.011080332 30:0.02770083 31:0.0083102491 32:0.016620498 33:0.011080332 34:0.0083102491 35:0.019390581 36:0.016620498 37:0.019390581 38:0.0083102491 39:0.011080332 40:0.016620498 41:0.024930747 42:0.022160664 43:0.030470913 44:0.013850415 45:0.019390581 46:0.0083102491 47:0.019390581 48:0.022160664 49:0.013850415 50:0.0055401661 51:0.024930747 52:0.013850415 53:0.016620498 54:0.030470913 55:0.016620498 56:0.013850415 57:0.024930747 58:0.0055401661 59:0.016620498 60:0.024930747 61:0.019390581 62:0.0083102491 63:0.016620498 64:0.024930747 #
8.2464374363258237 1:0.016483517 2:0.016483517 3:0.010989011 4:0.010989011 5:0.010989011 6:0.0054945056 7:0.010989011 8:0.010989011 9:0.043956045 10:0.016483517 11:0.027472528 12:0.016483517 13:0.016483517 14:0.0054945056 15:0.021978023 16:0.010989011 17:0.032967035 18:0.016483517 19:0.021978023 20:0.010989011 21:0.016483517 22:0.016483517 23:0.027472528 24:0 25:0.0054945056 26:0.027472528 27:0.010989011 28:0.016483517 29:0.0054945056 30:0.010989011 31:0.010989011 32:0.0054945056 33:0.027472528 34:0.0054945056 35:0.016483517 36:0.010989011 37:0.0054945056 38:0.03846154 39:0.016483517 40:0.027472528 41:0.010989011 42:0.016483517 43:0.016483517 44:0.021978023 45:0.016483517 46:0.010989011 47:0.032967035 48:0.021978023 49:0.0054945056 50:0.021978023 51:0.010989011 52:0.0054945056 53:0.010989011 54:0.010989011 55:0.016483517 56:0.016483517 57:0.010989011 58:0.010989011 59:0.027472528 60:0.016483517 61:0.010989011 62:0.0054945056 63:0.016483517 64:0.016483517 #
-3 1:0.028776979 2:0.0071942448 3:0.01438849 4:0.021582734 5:0.043165468 6:0.01438849 7:0.0071942448 8:0.021582734 9:0.01438849 10:0.035971224 11:0.0071942448 12:0.01438849 13:0.01438849 14:0 15:0.021582734 16:0.021582734 17:0.028776979 18:0.01438849 19:0.043165468 20:0.01438849 21:0 22:0.043165468 23:0.028776979 24:0.0071942448 25:0.0071942448 26:0.01438849 27:0 28:0.0071942448 29:0.0071942448 30:0.028776979 31:0 32:0.021582734 33:0.028776979 34:0.01438849 35:0.01438849 36:0.0071942448 37:0.0071942448 38:0.035971224 39:0.01438849 40:0 41:0.021582734 42:0.0071942448 43:0.01438849 44:0.01438849 45:0.028776979 46:0.01438849 47:0.0071942448 48:0.0071942448 49:0.01438849 50:0.0071942448 51:0.01438849 52:0.01438849 53:0.0071942448 54:0.0071942448 55:0.01438849 56:0.0071942448 57:0.0071942448 58:0.01438849 59:0.028776979 60:0.028776979 61:0.028776979 62:0.0071942448 63:0.0071942448 64:0 #
-3 1:0.040650405 2:0.016260162 3:0.016260162 4:0.021680217 5:0.029810298 6:0.021680217 7:0.0054200543 8:0.008130081 9:0.013550135 10:0.01897019 11:0.016260162 12:0.024390243 13:0.029810298 14:0.010840109 15:0.013550135 16:0.01897019 17:0.032520324 18:0.01897019 19:0.021680217 20:0.008130081 21:0.010840109 22:0.013550135 23:0.0054200543 24:0.016260162 25:0.010840109 26:0.021680217 27:0.008130081 28:0.010840109 29:0.016260162 30:0.013550135 31:0.013550135 32:0.010840109 33:0.01897019 34:0.016260162 35:0.010840109 36:0.013550135 37:0.01897019 38:0.016260162 39:0.013550135 40:0.016260162 41:0.013550135 42:0.0054200543 43:0.0054200543 44:0.021680217 45:0.01897019 46:0.0054200543 47:0.01897019 48:0.013550135 49:0.021680217 50:0.01897019 51:0.021680217 52:0.008130081 53:0.008130081 54:0.016260162 55:0.01897019 56:0.016260162 57:0.013550135 58:0.0027100272 59:0.016260162 60:0.01897019 61:0.008130081 62:0.016260162 63:0.01897019 64:0.008130081 #
-1.9326125856281229 1:0.011111111 2:0.011111111 3:0.022222223 4:0.011111111 5:0.044444446 6:0.011111111 7:0.011111111 8:0.011111111 9:0.011111111 10:0.055555556 11:0.011111111 12:0.011111111 13:0.011111111 14:0 15:0.022222223 16:0 17:0.011111111 18:0.011111111 19:0.011111111 20:0.022222223 21:0.011111111 22:0.06666667 23:0.033333335 24:0 25:0.011111111 26:0.011111111 27:0.022222223 28:0.022222223 29:0.011111111 30:0.022222223 31:0.011111111 32:0.011111111 33:0.044444446 34:0.011111111 35:0.022222223 36:0.011111111 37:0.011111111 38:0.022222223 39:0 40:0.022222223 41:0.022222223 42:0.011111111 43:0.022222223 44:0.022222223 45:0 46:0.022222223 47:0.011111111 48:0.011111111 49:0.011111111 50:0.011111111 51:0.022222223 52:0.011111111 53:0.011111111 54:0.011111111 55:0.022222223 56:0 57:0.022222223 58:0 59:0 60:0.011111111 61:0.011111111 62:0.011111111 63:0.022222223 64:0.011111111 #
2.1400891394752706 1:0.02538071 2:0.005076142 3:0.010152284 4:0.010152284 5:0.020304568 6:0.015228426 7:0 8:0.005076142 9:0.010152284 10:0.015228426 11:0 12:0.005076142 13:0.015228426 14:0.015228426 15:0.010152284 16:0.030456852 17:0.015228426 18:0.02538071 19:0.02538071 20:0.010152284 21:0.005076142 22:0.030456852 23:0 24:0.015228426 25:0 26:0 27:0.010152284 28:0.02538071 29:0.015228426 30:0.020304568 31:0.015228426 32:0.020304568 33:0.020304568 34:0 35:0.020304568 36:0.005076142 37:0.015228426 38:0.015228426 39:0.005076142 40:0.030456852 41:0.010152284 42:0.010152284 43:0.015228426 44:0.030456852 45:0.010152284 46:0.010152284 47:0.020304568 48:0.02538071 49:0.010152284 50:0.005076142 51:0 52:0.005076142 53:0.010152284 54:0.015228426 55:0.030456852 56:0.020304568 57:0 58:0.02538071 59:0.035532996 60:0.05076142 61:0.010152284 62:0.02538071 63:0.05076142 64:0.035532996 #
0.24376311176519486 1:0 2:0.023255814 3:0 4:0.023255814 5:0 6:0 7:0 8:0 9:0 10:0 11:0.023255814 12:0.011627907 13:0.011627907 14:0.011627907 15:0.011627907 16:0.023255814 17:0 18:0.011627907 19:0 20:0 21:0.023255814 22:0.034883723 23:0.011627907 24:0.011627907 25:0.011627907 26:0.034883723 27:0.046511628 28:0.034883723 29:0 30:0.023255814 31:0 32:0.011627907 33:0 34:0 35:0.023255814 36:0.023255814 37:0.011627907 38:0.058139537 39:0.069767445 40:0.023255814 41:0 42:0.011627907 43:0.023255814 44:0.011627907 45:0.023255814 46:0.023255814 47:0.023255814 48:0.011627907 49:0 50:0 51:0.011627907 52:0 53:0 54:0.023255814 55:0.011627907 56:0 57:0.023255814 58:0.011627907 59:0.046511628 60:0.046511628 61:0.023255814 62:0 63:0.034883723 64:0.034883723 #
7.6493109946100777 1:0.010526316 2:0 3:0.031578947 4:0.010526316 5:0 6:0.021052632 7:0.021052632 8:0.010526316 9:0.031578947 10:0 11:0.021052632 12:0.031578947 13:0 14:0.021052632 15:0.021052632 16:0.010526316 17:0 18:0.010526316 19:0 20:0.052631579 21:0.021052632 22:0.010526316 23:0.010526316 24:0.010526316 25:0 26:0 27:0.021052632 28:0.010526316 29:0.021052632 30:0.031578947 31:0 32:0.021052632 33:0.010526316 34:0.021052632 35:0 36:0.031578947 37:0.010526316 38:0 39:0.031578947 40:0.010526316 41:0.021052632 42:0.021052632 43:0.021052632 44:0 45:0.010526316 46:0.031578947 47:0.021052632 48:0.010526316 49:0.021052632 50:0.010526316 51:0.021052632 52:0.010526316 53:0.010526316 54:0.021052632 55:0.010526316 56:0.021052632 57:0.052631579 58:0.010526316 59:0.010526316 60:0.010526316 61:0.021052632 62:0.010526316 63:0.010526316 64:0.031578947 #
-1.7192256694021739 1:0.0062500001 2:0.0125 3:0 4:0 5:0.0062500001 6:0 7:0.025 8:0.018750001 9:0.025 10:0.0062500001 11:0.018750001 12:0.0125 13:0.0062500001 14:0.0062500001 15:0.0062500001 16:0.025 17:0.018750001 18:0.0062500001 19:0.025 20:0.0062500001 21:0.0062500001 22:0.018750001 23:0.018750001 24:0.025 25:0.0062500001 26:0.025 27:0.03125 28:0.0125 29:0.0125 30:0.025 31:0.0062500001 32:0.03125 33:0.018750001 34:0 35:0.018750001 36:0.018750001 37:0.0125 38:0.037500001 39:0.025 40:0.0125 41:0.0125 42:0.025 43:0.018750001 44:0.018750001 45:0.0125 46:0.018750001 47:0.03125 48:0.0062500001 49:0 50:0.025 51:0.018750001 52:0.0062500001 53:0 54:0.018750001 55:0.0125 56:0.03125 57:0.0062500001 58:0.018750001 59:0.025 60:0.025 61:0.025 62:0.025 63:0.0125 64:0.0125 #
-3 1:0 2:0.01369863 3:0 4:0.01369863 5:0 6:0 7:0.01369863 8:0.01369863 9:0.006849315 10:0.006849315 11:0.02739726 12:0.01369863 13:0.020547945 14:0.006849315 15:0.01369863 16:0.020547945 17:0.006849315 18:0.006849315 19:0.006849315 20:0.020547945 21:0.01369863 22:0.034246575 23:0.006849315 24:0 25:0.006849315 26:0.01369863 27:0.020547945 28:0.020547945 29:0.020547945 30:0.020547945 31:0.02739726 32:0.01369863 33:0.006849315 34:0.006849315 35:0.006849315 36:0.02739726 37:0 38:0.02739726 39:0.01369863 40:0.020547945 41:0.006849315 42:0.020547945 43:0.05479452 44:0.02739726 45:0.01369863 46:0.01369863 47:0.047945205 48:0.020547945 49:0.01369863 50:0.020547945 51:0.01369863 52:0 53:0.01369863 54:0.01369863 55:0.034246575 56:0.034246575 57:0.034246575 58:0.020547945 59:0.02739726 60:0.020547945 61:0.006849315 62:0.01369863 63:0.006849315 64:0 #
-0.63259775923435879 1:0 2:0 3:0.025974026 4:0 5:0 6:0.038961038 7:0.012987013 8:0 9:0.012987013 10:0 11:0 12:0.012987013 13:0.012987013 14:0.012987013 15:0.025974026 16:0.025974026 17:0 18:0.012987013 19:0 20:0.025974026 21:0.025974026 22:0 23:0 24:0.025974026 25:0.012987013 26:0.025974026 27:0.012987013 28:0 29:0 30:0.038961038 31:0.025974026 32:0.025974026 33:0.012987013 34:0.012987013 35:0.012987013 36:0.051948052 37:0.012987013 38:0.012987013 39:0 40:0.012987013 41:0 42:0 43:0.012987013 44:0.012987013 45:0.012987013 46:0.012987013 47:0.025974026 48:0.025974026 49:0.012987013 50:0 51:0 52:0.012987013 53:0.012987013 54:0.025974026 55:0.025974026 56:0.012987013 57:0.038961038 58:0.012987013 59:0.025974026 60:0.051948052 61:0.012987013 62:0.012987013 63:0.025974026 64:0.064935066 #
-3 1:0 2:0.013605442 3:0 4:0.0068027209 5:0.0068027209 6:0.013605442 7:0.013605442 8:0.0068027209 9:0.020408163 10:0.013605442 11:0.020408163 12:0.020408163 13:0.0068027209 14:0.0068027209 15:0.020408163 16:0.020408163 17:0.013605442 18:0.020408163 19:0.0068027209 20:0.0068027209 21:0.020408163 22:0.027210884 23:0.0068027209 24:0.020408163 25:0.020408163 26:0.0068027209 27:0.020408163 28:0.0068027209 29:0.020408163 30:0.020408163 31:0.020408163 32:0.0068027209 33:0.0068027209 34:0.027210884 35:0.027210884 36:0.0068027209 37:0.013605442 38:0.013605442 39:0.013605442 40:0.027210884 41:0 42:0.0068027209 43:0.027210884 44:0.020408163 45:0.013605442 46:0 47:0.034013607 48:0.034013607 49:0.013605442 50:0.013605442 51:0 52:0.027210884 53:0.0068027209 54:0.013605442 55:0.013605442 56:0.013605442 57:0.013605442 58:0.027210884 59:0.034013607 60:0.013605442 61:0.013605442 62:0.013605442 63:0.013605442 64:0.06122449 #
3.6781545996105316 1:0.03508772 2:0 3:0.043859649 4:0.0087719299 5:0.01754386 6:0.03508772 7:0.01754386 8:0.02631579 9:0.01754386 10:0.0087719299 11:0.0087719299 12:0.02631579 13:0.02631579 14:0.01754386 15:0.02631579 16:0.0087719299 17:0.02631579 18:0.03508772 19:0.0087719299 20:0.03508772 21:0.0087719299 22:0.043859649 23:0.0087719299 24:0.01754386 25:0.02631579 26:0 27:0 28:0 29:0.0087719299 30:0.01754386 31:0.0087719299 32:0.01754386 33:0.02631579 34:0.02631579 35:0.0087719299 36:0 37:0.02631579 38:0 39:0 40:0.01754386 41:0.02631579 42:0 43:0 44:0.01754386 45:0.02631579 46:0.0087719299 47:0 48:0.0087719299 49:0.0087719299 50:0.0087719299 51:0.043859649 52:0.01754386 53:0.0087719299 54:0.01754386 55:0.0087719299 56:0 57:0.02631579 58:0.0087719299 59:0 60:0.01754386 61:0.0087719299 62:0.02631579 63:0.0087719299 64:0.0087719299 #
3.5008510311644181 1:0.047945205 2:0.01369863 3:0 4:0.01369863 5:0.034246575 6:0.01369863 7:0.02739726 8:0.01369863 9:0 10:0.02739726 11:0 12:0.020547945 13:0.02739726 14:0 15:0.020547945 16:0.020547945 17:0.020547945 18:0.01369863 19:0.04109589 20:0.006849315 21:0.006849315 22:0.020547945 23:0.020547945 24:0.006849315 25:0.020547945 26:0.02739726 27:0 28:0.006849315 29:0.006849315 30:0.01369863 31:0.01369863 32:0.006849315 33:0.020547945 34:0.020547945 35:0 36:0.01369863 37:0.006849315 38:0.02739726 39:0.01369863 40:0.01369863 41:0.01369863 42:0.01369863 43:0.006849315 44:0.034246575 45:0.020547945 46:0.006849315 47:0.006849315 48:0.020547945 49:0.01369863 50:0.006849315 51:0.020547945 52:0.020547945 53:0.006849315 54:0.01369863 55:0.006849315 56:0 57:0.020547945 58:0.006849315 59:0.020547945 60:0.02739726 61:0.01369863 62:0.006849315 63:0.04109589 64:0.020547945 #
9 1:0.042904291 2:0.01650165 3:0.01650165 4:0.013201321 5:0.026402641 6:0.0099009899 7:0.0099009899 8:0.0099009899 9:0.02310231 10:0.029702971 11:0.013201321 12:0.013201321 13:0.01650165 14:0.01650165 15:0.0099009899 16:0.013201321 17:0.029702971 18:0.0033003301 19:0.01650165 20:0.02310231 21:0.0099009899 22:0.0066006603 23:0.0330033 24:0.0099009899 25:0.0033003301 26:0.013201321 27:0.0066006603 28:0.01650165 29:0.013201321 30:0.013201321 31:0.0099009899 32:0.01650165 33:0.026402641 34:0.02310231 35:0.01650165 36:0.0033003301 37:0.01650165 38:0.01650165 39:0.0099009899 40:0.013201321 41:0.0099009899 42:0.0099009899 43:0.0330033 44:0.01980198 45:0.013201321 46:0.02310231 47:0.0099009899 48:0.01980198 49:0.0066006603 50:0.013201321 51:0.01650165 52:0.0099009899 53:0.01980198 54:0.0033003301 55:0.01980198 56:0.0099009899 57:0.013201321 58:0.013201321 59:0.01650165 60:0.029702971 61:0.0099009899 62:0.013201321 63:0.026402641 64:0.0099009899 #
-3 1:0.013333334 2:0 3:0.026666667 4:0.013333334 5:0.013333334 6:0 7:0.026666667 8:0 9:0.039999999 10:0.039999999 11:0.026666667 12:0.039999999 13:0.013333334 14:0 15:0.039999999 16:0.013333334 17:0.026666667 18:0.039999999 19:0.013333334 20:0.026666667 21:0 22:0.013333334 23:0 24:0 25:0.026666667 26:0 27:0.013333334 28:0 29:0.013333334 30:0 31:0 32:0.013333334 33:0.026666667 34:0.026666667 35:0.026666667 36:0.013333334 37:0.013333334 38:0.013333334 39:0.013333334 40:0.013333334 41:0.026666667 42:0 43:0 44:0.013333334 45:0.026666667 46:0.013333334 47:0.013333334 48:0.026666667 49:0 50:0 51:0.026666667 52:0 53:0.013333334 54:0.026666667 55:0.013333334 56:0.039999999 57:0.026666667 58:0 59:0.013333334 60:0.013333334 61:0.013333334 62:0.026666667 63:0.013333334 64:0.013333334 #
-3 1:0.028571429 2:0.017142856 3:0.011428571 4:0.028571429 5:0.034285713 6:0.017142856 7:0.017142856 8:0.011428571 9:0.017142856 10:0.017142856 11:0.017142856 12:0.034285713 13:0.017142856 14:0.022857143 15:0 16:0.017142856 17:0.022857143 18:0.0057142857 19:0.034285713 20:0.017142856 21:0.0057142857 22:0.0057142857 23:0.022857143 24:0.011428571 25:0 26:0.017142856 27:0.0057142857 28:0.011428571 29:0.028571429 30:0.011428571 31:0 32:0.017142856 33:0.028571429 34:0.017142856 35:0.0057142857 36:0.011428571 37:0.017142856 38:0.0057142857 39:0.0057142857 40:0.0057142857 41:0.0057142857 42:0.017142856 43:0.0057142857 44:0.017142856 45:0.022857143 46:0.017142856 47:0.022857143 48:0.011428571 49:0.017142856 50:0.017142856 51:0.022857143 52:0.022857143 53:0.017142856 54:0.011428571 55:0.011428571 56:0.022857143 57:0.022857143 58:0.011428571 59:0.011428571 60:0.0057142857 61:0.022857143 62:0.0057142857 63:0.022857143 64:0.011428571 #
-3 1:0.018050542 2:0.0036101083 3:0.039711192 4:0.018050542 5:0.0072202166 6:0.014440433 7:0.0072202166 8:0.010830325 9:0.014440433 10:0.010830325 11:0.02166065 12:0.02166065 13:0.018050542 14:0.025270758 15:0.014440433 16:0.02166065 17:0.010830325 18:0.010830325 19:0.028880866 20:0.028880866 21:0.010830325 22:0.010830325 23:0.010830325 24:0.010830325 25:0.0036101083 26:0.0072202166 27:0 28:0.0036101083 29:0 30:0.018050542 31:0.014440433 32:0.025270758 33:0.014440433 34:0 35:0.018050542 36:0.014440433 37:0.014440433 38:0.0072202166 39:0.010830325 40:0.02166065 41:0.039711192 42:0.018050542 43:0.018050542 44:0.025270758 45:0.036101084 46:0.0072202166 47:0.010830325 48:0.0072202166 49:0.014440433 50:0.010830325 51:0.018050542 52:0.018050542 53:0.02166065 54:0.010830325 55:0.0036101083 56:0.018050542 57:0.025270758 58:0.018050542 59:0.018050542 60:0.018050542 61:0.018050542 62:0.018050542 63:0.028880866 64:0.014440433 #
7.22074208870748 1:0.010869565 2:0.043478262 3:0 4:0.065217391 5:0.021739131 6:0.010869565 7:0 8:0.010869565 9:0 10:0.010869565 11:0.010869565 12:0.021739131 13:0.032608695 14:0.021739131 15:0 16:0.010869565 17:0.032608695 18:0 19:0 20:0.010869565 21:0.032608695 22:0.021739131 23:0.021739131 24:0.010869565 25:0 26:0.021739131 27:0.032608695 28:0.021739131 29:0.010869565 30:0.010869565 31:0.010869565 32:0.010869565 33:0 34:0.032608695 35:0.021739131 36:0.021739131 37:0.010869565 38:0 39:0.032608695 40:0 41:0.010869565 42:0.032608695 43:0.054347824 44:0 45:0 46:0.010869565 47:0.021739131 48:0.010869565 49:0.021739131 50:0 51:0 52:0 53:0.021739131 54:0.021739131 55:0.021739131 56:0.010869565 57:0 58:0 59:0.032608695 60:0.010869565 61:0.054347824 62:0.010869565 63:0 64:0.010869565 #
9 1:0.0018867925 2:0.003773585 3:0.0056603774 4:0.013207547 5:0.0075471699 6:0.01509434 7:0.01509434 8:0.0094339624 9:0.013207547 10:0.0075471699 11:0.01509434 12:0.0094339624 13:0.011320755 14:0.016981132 15:0.018867925 16:0.02264151 17:0.0075471699 18:0.024528302 19:0.0056603774 20:0.020754717 21:0.011320755 22:0.0075471699 23:0.011320755 24:0.020754717 25:0.011320755 26:0.01509434 27:0.016981132 28:0.0075471699 29:0.013207547 30:0.02264151 31:0.03018868 32:0.028301887 33:0.0075471699 34:0.011320755 35:0.0075471699 36:0.020754717 37:0.0056603774 38:0.02264151 39:0.01509434 40:0.026415095 41:0.0075471699 42:0.013207547 43:0.0056603774 44:0.016981132 45:0.0094339624 46:0.016981132 47:0.02264151 48:0.02264151 49:0.016981132 50:0.003773585 51:0.011320755 52:0.024528302 53:0.018867925 54:0.024528302 55:0.02264151 56:0.02264151 57:0.02264151 58:0.028301887 59:0.013207547 60:0.026415095 61:0.020754717 62:0.020754717 63:0.01509434 64:0.033962265 #
8.7694838039312888 1:0.0053619305 2:0.0026809652 3:0 4:0.0026809652 5:0.0026809652 6:0.0053619305 7:0.010723861 8:0.018766755 9:0.013404826 10:0.0053619305 11:0.0080428952 12:0.01608579 13:0.0053619305 14:0.010723861 15:0.021447722 16:0.032171581 17:0.0026809652 18:0.018766755 19:0.010723861 20:0.018766755 21:0.0080428952 22:0.01608579 23:0.010723861 24:0.018766755 25:0.0026809652 26:0.010723861 27:0.026809651 28:0.010723861 29:0.024128687 30:0.018766755 31:0.01608579 32:0.018766755 33:0.010723861 34:0.0053619305 35:0.01608579 36:0.013404826 37:0.0053619305 38:0.021447722 39:0.021447722 40:0.01608579 41:0.0053619305 42:0.018766755 43:0.01608579 44:0.018766755 45:0.021447722 46:0.01608579 47:0.024128687 48:0.029490616 49:0.0053619305 50:0.010723861 51:0.01608579 52:0.01608579 53:0.0080428952 54:0.021447722 55:0.018766755 56:0.032171581 57:0.018766755 58:0.029490616 59:0.026809651 60:0.032171581 61:0.018766755 62:0.024128687 63:0.01608579 64:0.050938338 #
-3 1:0.01529052 2:0.0091743115 3:0.0061162082 4:0.0061162082 5:0.01529052 6:0.024464833 7:0.0030581041 8:0.0091743115 9:0.0091743115 10:0.01529052 11:0.0091743115 12:0.01529052 13:0.0030581041 14:0.0030581041 15:0.01529052 16:0.01529052 17:0.012232416 18:0.018348623 19:0.021406727 20:0.012232416 21:0.018348623 22:0.012232416 23:0.024464833 24:0.033639144 25:0.0091743115 26:0.018348623 27:0.021406727 28:0.01529052 29:0.0091743115 30:0.024464833 31:0.012232416 32:0.018348623 33:0.0091743115 34:0.0091743115 35:0.0061162082 36:0.01529052 37:0.012232416 38:0.018348623 39:0.021406727 40:0.0061162082 41:0.0091743115 42:0.01529052 43:0.021406727 44:0.01529052 45:0.018348623 46:0.021406727 47:0.024464833 48:0.03058104 49:0.0061162082 50:0.012232416 51:0.01529052 52:0 53:0.0061162082 54:0.018348623 55:0.012232416 56:0.042813454 57:0.0061162082 58:0.03058104 59:0.021406727 60:0.018348623 61:0.01529052 62:0.03058104 63:0.01529052 64:0.039755352 #
-3 1:0.035294119 2:0.023529412 3:0 4:0 5:0.035294119 6:0 7:0 8:0.011764706 9:0.011764706 10:0.047058824 11:0.011764706 12:0.011764706 13:0.011764706 14:0.035294119 15:0 16:0.023529412 17:0.023529412 18:0.011764706 19:0.023529412 20:0.011764706 21:0.011764706 22:0.011764706 23:0 24:0.05882353 25:0 26:0 27:0.035294119 28:0 29:0.023529412 30:0.011764706 31:0.023529412 32:0.011764706 33:0.011764706 34:0.011764706 35:0.011764706 36:0.011764706 37:0.023529412 38:0 39:0.023529412 40:0.011764706 41:0 42:0 43:0.011764706 44:0.011764706 45:0.011764706 46:0.011764706 47:0.023529412 48:0.023529412 49:0.023529412 50:0.011764706 51:0 52:0.035294119 53:0.035294119 54:0.023529412 55:0 56:0.023529412 57:0 58:0.035294119 59:0.011764706 60:0 61:0 62:0.023529412 63:0.011764706 64:0.047058824 #
-0.44437069487322034 1:0 2:0.012658228 3:0 4:0.037974682 5:0 6:0.012658228 7:0.012658228 8:0.012658228 9:0 10:0.025316456 11:0.012658228 12:0 13:0 14:0 15:0.025316456 16:0.025316456 17:0 18:0.012658228 19:0.012658228 20:0.012658228 21:0.012658228 22:0 23:0.025316456 24:0.025316456 25:0 26:0.025316456 27:0.025316456 28:0.025316456 29:0.025316456 30:0.025316456 31:0.012658228 32:0.025316456 33:0 34:0.012658228 35:0 36:0.037974682 37:0 38:0.037974682 39:0.012658228 40:0.025316456 41:0 42:0.012658228 43:0 44:0 45:0.012658228 46:0.012658228 47:0.037974682 48:0.012658228 49:0 50:0 51:0 52:0.025316456 53:0.025316456 54:0.012658228 55:0.025316456 56:0.025316456 57:0.050632913 58:0.025316456 59:0.012658228 60:0.012658228 61:0.037974682 62:0.050632913 63:0 64:0.037974682 #
2.7282697874812025 1:0.02739726 2:0.01369863 3:0.01369863 4:0.01369863 5:0.01369863 6:0.04109589 7:0 8:0 9:0.01369863 10:0.02739726 11:0.01369863 12:0.04109589 13:0.01369863 14:0.01369863 15:0.01369863 16:0.01369863 17:0 18:0.01369863 19:0.02739726 20:0.01369863 21:0.02739726 22:0.04109589 23:0.01369863 24:0 25:0 26:0.05479452 27:0.04109589 28:0.01369863 29:0.01369863 30:0 31:0 32:0 33:0.02739726 34:0 35:0 36:0.01369863 37:0.05479452 38:0.01369863 39:0.01369863 40:0.02739726 41:0.01369863 42:0 43:0 44:0.02739726 45:0.02739726 46:0.01369863 47:0.04109589 48:0 49:0 50:0.01369863 51:0.08219178 52:0 53:0 54:0.01369863 55:0 56:0 57:0.01369863 58:0 59:0 60:0.01369863 61:0.01369863 62:0 63:0.01369863 64:0.02739726 #
2.9292015659455548 1:0.032520324 2:0.008130081 3:0.016260162 4:0.016260162 5:0.008130081 6:0.016260162 7:0.024390243 8:0.032520324 9:0.040650405 10:0 11:0.024390243 12:0.024390243 13:0.032520324 14:0.016260162 15:0.024390243 16:0 17:0.016260162 18:0.008130081 19:0.024390243 20:0.032520324 21:0 22:0.024390243 23:0 24:0 25:0.008130081 26:0.016260162 27:0 28:0.016260162 29:0.008130081 30:0.024390243 31:0.016260162 32:0 33:0.048780486 34:0.008130081 35:0.008130081 36:0.032520324 37:0.008130081 38:0.016260162 39:0.008130081 40:0.008130081 41:0.016260162 42:0.016260162 43:0.024390243 44:0.016260162 45:0.016260162 46:0 47:0.024390243 48:0.016260162 49:0.024390243 50:0.008130081 51:0.040650405 52:0.008130081 53:0.024390243 54:0.016260162 55:0.008130081 56:0 57:0.024390243 58:0.008130081 59:0.016260162 60:0.008130081 61:0.016260162 62:0.008130081 63:0 64:0.008130081 #
3.4536129922734591 1:0.049586777 2:0.0082644625 3:0.020661157 4:0.03305785 5:0.0082644625 6:0.0082644625 7:0.0082644625 8:0.0082644625 9:0.02892562 10:0.020661157 11:0.0661157 12:0.016528925 13:0.03305785 14:0.0041322312 15:0.012396694 16:0.0041322312 17:0.016528925 18:0.012396694 19:0.012396694 20:0.020661157 21:0 22:0.016528925 23:0.016528925 24:0.0082644625 25:0.012396694 26:0.0082644625 27:0.016528925 28:0.0082644625 29:0.0041322312 30:0.0082644625 31:0 32:0.0082644625 33:0.03305785 34:0.0041322312 35:0.05785124 36:0.0041322312 37:0.024793388 38:0.016528925 39:0.012396694 40:0.0082644625 41:0.024793388 42:0.012396694 43:0.020661157 44:0.020661157 45:0.020661157 46:0.024793388 47:0.020661157 48:0.012396694 49:0.020661157 50:0.0082644625 51:0.012396694 52:0.012396694 53:0.0041322312 54:0.0082644625 55:0.020661157 56:0.0041322312 57:0.041322313 58:0.0041322312 59:0.0082644625 60:0.0082644625 61:0.0041322312 62:0.0082644625 63:0.012396694 64:0.0041322312 #
-3 1:0.028301887 2:0.0094339624 3:0 4:0.0094339624 5:0.0094339624 6:0.028301887 7:0.028301887 8:0.0094339624 9:0.028301887 10:0.0094339624 11:0.018867925 12:0.0094339624 13:0 14:0.018867925 15:0.03773585 16:0.0094339624 17:0 18:0.018867925 19:0.018867925 20:0.018867925 21:0.028301887 22:0.018867925 23:0.028301887 24:0 25:0.018867925 26:0.028301887 27:0.0094339624 28:0 29:0.018867925 30:0 31:0.018867925 32:0.018867925 33:0.028301887 34:0.03773585 35:0.018867925 36:0.018867925 37:0.0094339624 38:0.018867925 39:0.018867925 40:0.0094339624 41:0.028301887 42:0.028301887 43:0.0094339624 44:0.018867925 45:0 46:0.018867925 47:0 48:0.028301887 49:0.0094339624 50:0 51:0.028301887 52:0.0094339624 53:0.018867925 54:0 55:0.028301887 56:0 57:0.0094339624 58:0.0094339624 59:0 60:0.047169812 61:0.018867925 62:0.0094339624 63:0.018867925 64:0 #
-3 1:0.024590164 2:0.024590164 3:0.016393442 4:0.040983606 5:0.0081967209 6:0.016393442 7:0.016393442 8:0 9:0 10:0.0081967209 11:0.0081967209 12:0.016393442 13:0.024590164 14:0.0081967209 15:0.024590164 16:0.032786883 17:0.016393442 18:0.040983606 19:0.016393442 20:0.0081967209 21:0.016393442 22:0.016393442 23:0.016393442 24:0 25:0.016393442 26:0.024590164 27:0.0081967209 28:0.0081967209 29:0.024590164 30:0 31:0.024590164 32:0 33:0.0081967209 34:0.0081967209 35:0 36:0.016393442 37:0.016393442 38:0.040983606 39:0.024590164 40:0 41:0.016393442 42:0.024590164 43:0.0081967209 44:0.024590164 45:0.024590164 46:0.0081967209 47:0 48:0.016393442 49:0.0081967209 50:0 51:0.032786883 52:0.0081967209 53:0.016393442 54:0.0081967209 55:0.024590164 56:0.016393442 57:0.032786883 58:0.0081967209 59:0.0081967209 60:0.024590164 61:0.016393442 62:0 63:0.0081967209 64:0.040983606 #
-3 1:0.01734104 2:0.0057803467 3:0.023121387 4:0.011560693 5:0.0057803467 6:0.01734104 7:0.0057803467 8:0.01734104 9:0.028901733 10:0.011560693 11:0.03468208 12:0.01734104 13:0.011560693 14:0.0057803467 15:0.023121387 16:0.011560693 17:0 18:0.011560693 19:0.0057803467 20:0.01734104 21:0.011560693 22:0.0057803467 23:0.01734104 24:0.0057803467 25:0.0057803467 26:0.023121387 27:0.0057803467 28:0.01734104 29:0.011560693 30:0.011560693 31:0.01734104 32:0.01734104 33:0.0057803467 34:0.0057803467 35:0.0057803467 36:0.028901733 37:0.01734104 38:0.011560693 39:0.01734104 40:0.0057803467 41:0.028901733 42:0 43:0.011560693 44:0.03468208 45:0.023121387 46:0.03468208 47:0.023121387 48:0.023121387 49:0.040462427 50:0.0057803467 51:0.040462427 52:0.01734104 53:0.0057803467 54:0.01734104 55:0.011560693 56:0.011560693 57:0.01734104 58:0.011560693 59:0.0057803467 60:0.023121387 61:0.011560693 62:0.0057803467 63:0.028901733 64:0.03468208 #
5.5944044220032279 1:0 2:0 3:0.018018018 4:0.036036037 5:0.018018018 6:0.0090090092 7:0.0090090092 8:0 9:0.018018018 10:0.018018018 11:0.0090090092 12:0 13:0.0090090092 14:0 15:0.0090090092 16:0.045045044 17:0.018018018 18:0.018018018 19:0.018018018 20:0 21:0 22:0.036036037 23:0.027027028 24:0.027027028 25:0 26:0 27:0.018018018 28:0 29:0.018018018 30:0.018018018 31:0.018018018 32:0.027027028 33:0.018018018 34:0.018018018 35:0.027027028 36:0 37:0.0090090092 38:0 39:0.018018018 40:0.0090090092 41:0.018018018 42:0.027027028 43:0 44:0.018018018 45:0.036036037 46:0.0090090092 47:0.0090090092 48:0.018018018 49:0.0090090092 50:0 51:0.018018018 52:0.0090090092 53:0.0090090092 54:0.027027028 55:0 56:0.045045044 57:0.0090090092 58:0.036036037 59:0.027027028 60:0.036036037 61:0.018018018 62:0.027027028 63:0.0090090092 64:0.045045044 #
1.402758663753904 1:0.0066225166 2:0.0066225166 3:0 4:0.013245033 5:0.013245033 6:0.013245033 7:0 8:0.013245033 9:0.013245033 10:0.026490066 11:0.026490066 12:0.0066225166 13:0.013245033 14:0.026490066 15:0.026490066 16:0.013245033 17:0.019867551 18:0.013245033 19:0.046357617 20:0.026490066 21:0.013245033 22:0.059602648 23:0.0066225166 24:0.013245033 25:0 26:0.013245033 27:0.0066225166 28:0.019867551 29:0.0066225166 30:0.013245033 31:0.013245033 32:0.026490066 33:0.013245033 34:0.013245033 35:0.013245033 36:0.019867551 37:0.026490066 38:0.0066225166 39:0.013245033 40:0.013245033 41:0.013245033 42:0.013245033 43:0.019867551 44:0.026490066 45:0.019867551 46:0.013245033 47:0.013245033 48:0 49:0.0066225166 50:0.0066225166 51:0.013245033 52:0 53:0.019867551 54:0.019867551 55:0.026490066 56:0.039735101 57:0.026490066 58:0.019867551 59:0.0066225166 60:0 61:0.0066225166 62:0.033112582 63:0.0066225166 64:0.013245033 #
5.579237328873524 1:0.028455285 2:0.012195121 3:0.016260162 4:0.008130081 5:0.036585364 6:0.012195121 7:0.016260162 8:0 9:0.012195121 10:0.020325202 11:0.012195121 12:0.008130081 13:0.012195121 14:0.016260162 15:0.016260162 16:0.016260162 17:0.020325202 18:0.008130081 19:0.012195121 20:0.020325202 21:0.012195121 22:0.008130081 23:0.024390243 24:0.040650405 25:0.012195121 26:0.012195121 27:0.016260162 28:0.008130081 29:0.0040650405 30:0.024390243 31:0.016260162 32:0.024390243 33:0.020325202 34:0.020325202 35:0.008130081 36:0.008130081 37:0.0040650405 38:0.020325202 39:0.020325202 40:0.0040650405 41:0.0040650405 42:0.016260162 43:0.0040650405 44:0.0040650405 45:0.012195121 46:0.020325202 47:0.008130081 48:0.040650405 49:0.016260162 50:0.008130081 51:0.0040650405 52:0.024390243 53:0.008130081 54:0.016260162 55:0.016260162 56:0.032520324 57:0.032520324 58:0.020325202 59:0.008130081 60:0.024390243 61:0.0040650405 62:0.032520324 63:0.016260162 64:0.012195121 #
-3 1:0.012048192 2:0 3:0.018072288 4:0.018072288 5:0.0060240962 6:0.024096385 7:0 8:0.012048192 9:0 10:0.012048192 11:0.0060240962 12:0.012048192 13:0.012048192 14:0.018072288 15:0.018072288 16:0.024096385 17:0.0060240962 18:0.0060240962 19:0.0060240962 20:0.012048192 21:0.0060240962 22:0.018072288 23:0.0060240962 24:0.018072288 25:0.0060240962 26:0.018072288 27:0.024096385 28:0.036144577 29:0.018072288 30:0.030120483 31:0.018072288 32:0.024096385 33:0.0060240962 34:0.012048192 35:0.030120483 36:0.012048192 37:0.024096385 38:0 39:0.0060240962 40:0.030120483 41:0.0060240962 42:0.0060240962 43:0.0060240962 44:0.030120483 45:0.024096385 46:0.012048192 47:0.018072288 48:0.018072288 49:0.0060240962 50:0.018072288 51:0.0060240962 52:0.024096385 53:0.018072288 54:0.030120483 55:0.018072288 56:0.036144577 57:0.030120483 58:0.018072288 59:0.024096385 60:0.0060240962 61:0.0060240962 62:0.030120483 63:0.036144577 64:0.0060240962 #
-3 1:0.0089285718 2:0.0089285718 3:0.017857144 4:0 5:0.0089285718 6:0.013392857 7:0.0089285718 8:0.017857144 9:0.013392857 10:0.013392857 11:0.017857144 12:0.0089285718 13:0.0089285718 14:0.022321429 15:0.0044642859 16:0.0089285718 17:0.017857144 18:0.017857144 19:0.0089285718 20:0.013392857 21:0.022321429 22:0.013392857 23:0.026785715 24:0.022321429 25:0.0089285718 26:0.017857144 27:0.017857144 28:0.026785715 29:0.0089285718 30:0.03125 31:0.017857144 32:0.03125 33:0.0089285718 34:0.017857144 35:0.013392857 36:0.0089285718 37:0.013392857 38:0.017857144 39:0.022321429 40:0.026785715 41:0.017857144 42:0.013392857 43:0.013392857 44:0.0089285718 45:0.0089285718 46:0.017857144 47:0.013392857 48:0.017857144 49:0.0044642859 50:0.013392857 51:0.0089285718 52:0.013392857 53:0.013392857 54:0.035714287 55:0.0089285718 56:0.03125 57:0.0089285718 58:0.03125 59:0.013392857 60:0.013392857 61:0.0089285718 62:0.022321429 63:0.026785715 64:0.017857144 #
-3 1:0.033333335 2:0 3:0.016666668 4:0.016666668 5:0 6:0 7:0.016666668 8:0.050000001 9:0.050000001 10:0 11:0.033333335 12:0 13:0.033333335 14:0 15:0.016666668 16:0.016666668 17:0.050000001 18:0.016666668 19:0.016666668 20:0.016666668 21:0 22:0 23:0.016666668 24:0.016666668 25:0 26:0.016666668 27:0.016666668 28:0 29:0.016666668 30:0 31:0 32:0.016666668 33:0.033333335 34:0.033333335 35:0.033333335 36:0 37:0 38:0 39:0.050000001 40:0 41:0.016666668 42:0.016666668 43:0.050000001 44:0 45:0.016666668 46:0.033333335 47:0 48:0.016666668 49:0 50:0.016666668 51:0 52:0 53:0 54:0.033333335 55:0 56:0.016666668 57:0.016666668 58:0.016666668 59:0.016666668 60:0.033333335 61:0.016666668 62:0.016666668 63:0.016666668 64:0.016666668 #
9 1:0.039999999 2:0.0066666668 3:0.013333334 4:0.013333334 5:0.0066666668 6:0.02 7:0.033333335 8:0 9:0.013333334 10:0.0066666668 11:0.033333335 12:0.0066666668 13:0.0066666668 14:0.013333334 15:0.02 16:0.013333334 17:0 18:0.026666667 19:0.0066666668 20:0.013333334 21:0.0066666668 22:0.026666667 23:0.013333334 24:0.0066666668 25:0.033333335 26:0.02 27:0.0066666668 28:0.013333334 29:0.0066666668 30:0.0066666668 31:0.02 32:0.02 33:0.013333334 34:0.0066666668 35:0.02 36:0.0066666668 37:0.02 38:0.02 39:0.0066666668 40:0.026666667 41:0.026666667 42:0.0066666668 43:0.02 44:0.026666667 45:0.02 46:0.026666667 47:0.026666667 48:0.013333334 49:0.0066666668 50:0.0066666668 51:0.039999999 52:0.013333334 53:0.013333334 54:0.013333334 55:0.013333334 56:0.0066666668 57:0.026666667 58:0.013333334 59:0.013333334 60:0.026666667 61:0 62:0.0066666668 63:0.0066666668 64:0.033333335 #
9 1:0 2:0.020408163 3:0.013605442 4:0.013605442 5:0.020408163 6:0.013605442 7:0.027210884 8:0.020408163 9:0.013605442 10:0.013605442 11:0.013605442 12:0.027210884 13:0.0068027209 14:0 15:0.020408163 16:0.0068027209 17:0.013605442 18:0.027210884 19:0.0068027209 20:0.013605442 21:0.013605442 22:0.040816326 23:0.013605442 24:0.013605442 25:0.020408163 26:0.013605442 27:0.020408163 28:0.013605442 29:0.040816326 30:0.013605442 31:0.013605442 32:0 33:0.0068027209 34:0.027210884 35:0.0068027209 36:0.027210884 37:0.0068027209 38:0.020408163 39:0.013605442 40:0.013605442 41:0.020408163 42:0 43:0.020408163 44:0.013605442 45:0.013605442 46:0.020408163 47:0.027210884 48:0.027210884 49:0.020408163 50:0.013605442 51:0.013605442 52:0.0068027209 53:0.0068027209 54:0.020408163 55:0.013605442 56:0.020408163 57:0.027210884 58:0.027210884 59:0.013605442 60:0.0068027209 61:0.0068027209 62:0.0068027209 63:0.020408163 64:0 #
2.800318334662681 1:0.037037037 2:0.037037037 3:0 4:0 5:0.018518519 6:0 7:0.055555556 8:0 9:0.018518519 10:0.018518519 11:0.018518519 12:0 13:0.018518519 14:0 15:0.055555556 16:0.018518519 17:0.037037037 18:0.018518519 19:0.037037037 20:0.018518519 21:0.018518519 22:0.018518519 23:0 24:0 25:0.055555556 26:0 27:0 28:0.018518519 29:0 30:0.018518519 31:0 32:0 33:0.018518519 34:0.037037037 35:0 36:0.018518519 37:0.018518519 38:0.037037037 39:0 40:0.037037037 41:0.018518519 42:0.018518519 43:0.018518519 44:0.018518519 45:0 46:0 47:0.037037037 48:0.018518519 49:0 50:0.018518519 51:0.018518519 52:0 53:0 54:0 55:0.018518519 56:0 57:0.037037037 58:0 59:0.018518519 60:0.037037037 61:0 62:0.018518519 63:0 64:0 #
6.2555548471951123 1:0.030120483 2:0.018072288 3:0.0060240962 4:0.018072288 5:0.018072288 6:0.024096385 7:0.0060240962 8:0.0060240962 9:0.024096385 10:0.018072288 11:0.012048192 12:0.0060240962 13:0.030120483 14:0.018072288 15:0.024096385 16:0.018072288 17:0.018072288 18:0.012048192 19:0.018072288 20:0.018072288 21:0.0060240962 22:0.0060240962 23:0 24:0.030120483 25:0.018072288 26:0.0060240962 27:0.012048192 28:0.0060240962 29:0.0060240962 30:0.018072288 31:0.030120483 32:0.012048192 33:0.030120483 34:0.0060240962 35:0.012048192 36:0.018072288 37:0.012048192 38:0.0060240962 39:0.0060240962 40:0.012048192 41:0 42:0 43:0.018072288 44:0.030120483 45:0.012048192 46:0 47:0.012048192 48:0.030120483 49:0.024096385 50:0.012048192 51:0.018072288 52:0.018072288 53:0.042168673 54:0.012048192 55:0 56:0.036144577 57:0.0060240962 58:0.036144577 59:0.0060240962 60:0.0060240962 61:0 62:0.030120483 63:0.024096385 64:0.030120483 #
-3 1:0.033707865 2:0.02247191 3:0 4:0 5:0.02247191 6:0 7:0.02247191 8:0.02247191 9:0 10:0.02247191 11:0.02247191 12:0.056179777 13:0 14:0 15:0.011235955 16:0.011235955 17:0.011235955 18:0.033707865 19:0 20:0.033707865 21:0.011235955 22:0.033707865 23:0.011235955 24:0.011235955 25:0.011235955 26:0 27:0.033707865 28:0 29:0.033707865 30:0.02247191 31:0.011235955 32:0.011235955 33:0.011235955 34:0.011235955 35:0.02247191 36:0.02247191 37:0.011235955 38:0.02247191 39:0.011235955 40:0.02247191 41:0.02247191 42:0.011235955 43:0.033707865 44:0.011235955 45:0.011235955 46:0.02247191 47:0.02247191 48:0 49:0 50:0 51:0.033707865 52:0 53:0 54:0.033707865 55:0.02247191 56:0.02247191 57:0.011235955 58:0.02247191 59:0 60:0 61:0.044943821 62:0.011235955 63:0.011235955 64:0 #
-3 1:0.015503876 2:0.007751938 3:0.015503876 4:0.015503876 5:0.031007752 6:0.031007752 7:0.015503876 8:0 9:0.007751938 10:0.015503876 11:0.023255814 12:0.015503876 13:0.007751938 14:0.031007752 15:0.015503876 16:0 17:0.023255814 18:0.023255814 19:0.023255814 20:0.03875969 21:0.023255814 22:0.015503876 23:0.023255814 24:0.007751938 25:0.015503876 26:0.015503876 27:0.007751938 28:0.023255814 29:0 30:0.031007752 31:0 32:0.007751938 33:0.015503876 34:0.015503876 35:0.007751938 36:0.015503876 37:0.015503876 38:0.031007752 39:0.015503876 40:0.023255814 41:0.015503876 42:0.015503876 43:0.015503876 44:0.015503876 45:0.007751938 46:0.007751938 47:0.031007752 48:0.015503876 49:0.007751938 50:0.015503876 51:0.015503876 52:0 53:0.015503876 54:0.007751938 55:0.015503876 56:0 57:0.031007752 58:0.007751938 59:0.023255814 60:0.023255814 61:0.015503876 62:0 63:0.023255814 64:0.007751938 #
-0.73058150465366911 1:0.016574586 2:0 3:0.011049724 4:0.016574586 5:0.016574586 6:0.016574586 7:0.033149172 8:0.011049724 9:0.022099448 10:0.022099448 11:0.022099448 12:0.0055248621 13:0.022099448 14:0.0055248621 15:0.016574586 16:0.022099448 17:0.011049724 18:0.0055248621 19:0.027624309 20:0.016574586 21:0.011049724 22:0.033149172 23:0.022099448 24:0 25:0.0055248621 26:0.022099448 27:0.027624309 28:0.0055248621 29:0.0055248621 30:0.011049724 31:0.011049724 32:0.0055248621 33:0.038674034 34:0.016574586 35:0.027624309 36:0.011049724 37:0.0055248621 38:0.022099448 39:0.0055248621 40:0.0055248621 41:0.016574586 42:0.044198897 43:0.011049724 44:0.016574586 45:0.022099448 46:0 47:0.022099448 48:0.027624309 49:0.011049724 50:0.011049724 51:0.016574586 52:0.022099448 53:0.011049724 54:0 55:0.022099448 56:0.0055248621 57:0.038674034 58:0 59:0.0055248621 60:0.027624309 61:0.0055248621 62:0.011049724 63:0.011049724 64:0.027624309 #
8.4734854932008652 1:0.0071428572 2:0.0071428572 3:0.0071428572 4:0 5:0.0071428572 6:0.014285714 7:0.0071428572 8:0.014285714 9:0.0071428572 10:0.0071428572 11:0.0071428572 12:0.028571429 13:0.0071428572 14:0.042857144 15:0.0071428572 16:0.0071428572 17:0 18:0.035714287 19:0.021428572 20:0.014285714 21:0.035714287 22:0 23:0 24:0.014285714 25:0 26:0.0071428572 27:0.021428572 28:0.021428572 29:0.028571429 30:0.021428572 31:0.028571429 32:0.028571429 33:0.014285714 34:0.014285714 35:0.021428572 36:0.021428572 37:0.014285714 38:0.014285714 39:0.028571429 40:0.021428572 41:0.014285714 42:0.028571429 43:0.014285714 44:0.0071428572 45:0.0071428572 46:0 47:0.014285714 48:0.028571429 49:0.0071428572 50:0.0071428572 51:0 52:0.0071428572 53:0.021428572 54:0.035714287 55:0.021428572 56:0.028571429 57:0.0071428572 58:0.021428572 59:0.035714287 60:0.028571429 61:0.0071428572 62:0.014285714 63:0.028571429 64:0.0071428572 #
0.10807792278789165 1:0.019390581 2:0.0055401661 3:0.002770083 4:0.013850415 5:0 6:0.002770083 7:0.002770083 8:0.013850415 9:0.011080332 10:0.002770083 11:0.0055401661 12:0.013850415 13:0.016620498 14:0.033240996 15:0.019390581 16:0.0083102491 17:0.0083102491 18:0.0055401661 19:0.024930747 20:0.016620498 21:0.002770083 22:0.02770083 23:0.024930747 24:0.0083102491 25:0.002770083 26:0.011080332 27:0.0083102491 28:0.024930747 29:0.0083102491 30:0.038781162 31:0.022160664 32:0.060941827 33:0.013850415 34:0.0083102491 35:0.0055401661 36:0.016620498 37:0.0083102491 38:0.019390581 39:0.0083102491 40:0.02770083 41:0.0055401661 42:0.019390581 43:0.002770083 44:0.013850415 45:0.016620498 46:0.019390581 47:0.0083102491 48:0.011080332 49:0.002770083 50:0.002770083 51:0.011080332 52:0.011080332 53:0.033240996 54:0.033240996 55:0.030470913 56:0.052631579 57:0.011080332 58:0.047091413 59:0.0083102491 60:0.016620498 61:0.011080332 62:0.019390581 63:0.019390581 64:0.016620498 #
-0.74372805165457967 1:0 2:0.0094339624 3:0.0094339624 4:0 5:0.0094339624 6:0.0094339624 7:0.018867925 8:0.0094339624 9:0 10:0 11:0 12:0.0094339624 13:0 14:0.028301887 15:0.018867925 16:0.0094339624 17:0 18:0.018867925 19:0.0094339624 20:0 21:0.0094339624 22:0.018867925 23:0 24:0.03773585 25:0.018867925 26:0.0094339624 27:0.0094339624 28:0.028301887 29:0.028301887 30:0.0094339624 31:0.03773585 32:0.018867925 33:0.0094339624 34:0 35:0.0094339624 36:0.018867925 37:0.0094339624 38:0 39:0.0094339624 40:0.018867925 41:0.0094339624 42:0.028301887 43:0.0094339624 44:0.03773585 45:0 46:0.028301887 47:0.018867925 48:0.047169812 49:0 50:0.028301887 51:0 52:0.0094339624 53:0.018867925 54:0.028301887 55:0.028301887 56:0.028301887 57:0.0094339624 58:0.018867925 59:0.03773585 60:0.03773585 61:0 62:0.018867925 63:0.047169812 64:0.047169812 #
-3 1:0.030674847 2:0.012269938 3:0.024539877 4:0.018404908 5:0.0061349692 6:0.0061349692 7:0.018404908 8:0.018404908 9:0.0061349692 10:0.0061349692 11:0 12:0.018404908 13:0.018404908 14:0.018404908 15:0.024539877 16:0.012269938 17:0 18:0.0061349692 19:0.024539877 20:0.0061349692 21:0.0061349692 22:0 23:0.018404908 24:0.030674847 25:0.0061349692 26:0.0061349692 27:0.024539877 28:0.0061349692 29:0.024539877 30:0.012269938 31:0.012269938 32:0.036809817 33:0.018404908 34:0.018404908 35:0.012269938 36:0.024539877 37:0.012269938 38:0.0061349692 39:0.012269938 40:0.024539877 41:0.018404908 42:0.024539877 43:0.012269938 44:0 45:0.012269938 46:0.018404908 47:0.012269938 48:0.018404908 49:0.012269938 50:0 51:0 52:0.024539877 53:0.018404908 54:0.012269938 55:0.018404908 56:0.012269938 57:0.030674847 58:0.042944785 59:0.012269938 60:0.030674847 61:0.012269938 62:0.030674847 63:0.018404908 64:0.018404908 #
-3 1:0 2:0 3:0.011111111 4:0 5:0.033333335 6:0 7:0.011111111 8:0.033333335 9:0 10:0.011111111 11:0.011111111 12:0.033333335 13:0.022222223 14:0.022222223 15:0 16:0.011111111 17:0.011111111 18:0.011111111 19:0.033333335 20:0.033333335 21:0 22:0.022222223 23:0.011111111 24:0.011111111 25:0.011111111 26:0.022222223 27:0.022222223 28:0.033333335 29:0.011111111 30:0 31:0.033333335 32:0 33:0.011111111 34:0.011111111 35:0.011111111 36:0.022222223 37:0 38:0.011111111 39:0.022222223 40:0.011111111 41:0 42:0.022222223 43:0 44:0 45:0.033333335 46:0.033333335 47:0.011111111 48:0.033333335 49:0.033333335 50:0.011111111 51:0 52:0.011111111 53:0 54:0.022222223 55:0.033333335 56:0.044444446 57:0.022222223 58:0.044444446 59:0.011111111 60:0 61:0.011111111 62:0.022222223 63:0.022222223 64:0.011111111 #
4.7035918785607471 1:0.069306932 2:0.0099009899 3:0.03960396 4:0 5:0.03960396 6:0.029702971 7:0.0099009899 8:0 9:0.01980198 10:0.01980198 11:0.01980198 12:0.0099009899 13:0 14:0.0099009899 15:0.0099009899 16:0.0099009899 17:0.029702971 18:0.0099009899 19:0 20:0 21:0.0099009899 22:0 23:0.0099009899 24:0.0099009899 25:0 26:0.029702971 27:0.029702971 28:0.01980198 29:0.0099009899 30:0.01980198 31:0.029702971 32:0.01980198 33:0.01980198 34:0.0099009899 35:0.01980198 36:0.01980198 37:0.0099009899 38:0.0099009899 39:0.0099009899 40:0.029702971 41:0.03960396 42:0.0099009899 43:0.01980198 44:0.0099009899 45:0.0099009899 46:0.0099009899 47:0.029702971 48:0.01980198 49:0 50:0.01980198 51:0.01980198 52:0.0099009899 53:0.0099009899 54:0.01980198 55:0.0099009899 56:0.01980198 57:0.01980198 58:0.0099009899 59:0.0099009899 60:0.01980198 61:0 62:0.0099009899 63:0.01980198 64:0 #
2.0998751922321595 1:0.045714285 2:0.022857143 3:0.022857143 4:0.022857143 5:0.017142856 6:0.028571429 7:0.011428571 8:0.0057142857 9:0.022857143 10:0.017142856 11:0.045714285 12:0.011428571 13:0.017142856 14:0.011428571 15:0.011428571 16:0.0057142857 17:0.022857143 18:0.017142856 19:0.0057142857 20:0.011428571 21:0.017142856 22:0.045714285 23:0 24:0.0057142857 25:0 26:0.011428571 27:0.017142856 28:0.011428571 29:0.0057142857 30:0.017142856 31:0.0057142857 32:0.011428571 33:0.017142856 34:0 35:0.039999999 36:0.028571429 37:0.039999999 38:0.017142856 39:0.0057142857 40:0.011428571 41:0.028571429 42:0 43:0.022857143 44:0.017142856 45:0 46:0 47:0.022857143 48:0.017142856 49:0.017142856 50:0.0057142857 51:0.011428571 52:0.022857143 53:0.0057142857 54:0 55:0 56:0 57:0.039999999 58:0 59:0.0057142857 60:0.011428571 61:0.022857143 62:0.017142856 63:0.034285713 64:0.011428571 #
